{"learner":{"attributes":{},"feature_names":["dependents_qty","primary_client_key","house_number","distance_km","month","week_of_month","broad_area_encoded","requests_per_household","Average household size","Couple-family households with children","Multigenerational households","One-parent families in which the parent is a man+","One-parent families in which the parent is a woman+","Persons not in census families - Living alone","Total one-parent families"],"feature_types":["float","float","float","float","float","float","float","float","float","float","float","float","float","float","float"],"gradient_booster":{"model":{"gbtree_model_param":{"num_parallel_tree":"1","num_trees":"100"},"iteration_indptr":[0,1,2,3,4,5,6,7,8,9,10,11,12,13,14,15,16,17,18,19,20,21,22,23,24,25,26,27,28,29,30,31,32,33,34,35,36,37,38,39,40,41,42,43,44,45,46,47,48,49,50,51,52,53,54,55,56,57,58,59,60,61,62,63,64,65,66,67,68,69,70,71,72,73,74,75,76,77,78,79,80,81,82,83,84,85,86,87,88,89,90,91,92,93,94,95,96,97,98,99,100],"tree_info":[0,0,0,0,0,0,0,0,0,0,0,0,0,0,0,0,0,0,0,0,0,0,0,0,0,0,0,0,0,0,0,0,0,0,0,0,0,0,0,0,0,0,0,0,0,0,0,0,0,0,0,0,0,0,0,0,0,0,0,0,0,0,0,0,0,0,0,0,0,0,0,0,0,0,0,0,0,0,0,0,0,0,0,0,0,0,0,0,0,0,0,0,0,0,0,0,0,0,0,0],"trees":[{"base_weights":[-2.2159055E-9,-5.2474312E-2,3.5682532E-1,-6.893134E-2,3.3865593E-2,7.362512E-2,1.5916753E-1,-2.4423439E-2,-4.7449637E-2,-3.4917947E-3,6.0364947E-2,-1.5025455E-2,-4.5492966E-3,-6.8815076E-3,4.451563E-3,8.762281E-3,2.2880573E-2,6.986797E-4,-2.7568147E-3,1.641103E-3,3.6210046E-4],"categories":[],"categories_nodes":[],"categories_segments":[],"categories_sizes":[],"default_left":[0,0,0,0,0,0,0,0,0,0,0,0,0,0,0,0,0,0,0,0,0],"id":0,"left_children":[1,3,5,7,9,-1,-1,-1,11,13,15,-1,-1,17,19,-1,-1,-1,-1,-1,-1],"loss_changes":[2.190727E0,1.47266E-1,1.6012132E-1,1.9193172E-2,1.7039873E-2,0E0,0E0,0E0,2.1331757E-3,2.4603907E-4,2.7275272E-3,0E0,0E0,1.4894066E-4,3.3137658E-6,0E0,0E0,0E0,0E0,0E0,0E0],"parents":[2147483647,0,0,1,1,2,2,3,3,4,4,8,8,9,9,10,10,13,13,14,14],"right_children":[2,4,6,8,10,-1,-1,-1,12,14,16,-1,-1,18,20,-1,-1,-1,-1,-1,-1],"split_conditions":[2.6150894E-1,7.441351E-2,6.376812E-1,3.2510906E-2,1.2044879E-1,7.362512E-2,1.5916753E-1,-2.4423439E-2,9.3952924E-2,9.612106E-2,1.632566E-1,-1.5025455E-2,-4.5492966E-3,8.5916504E-2,1.0912191E-1,8.762281E-3,2.2880573E-2,6.986797E-4,-2.7568147E-3,1.641103E-3,3.6210046E-4],"split_indices":[0,6,0,6,3,0,0,0,7,0,0,0,0,3,0,0,0,0,0,0,0],"split_type":[0,0,0,0,0,0,0,0,0,0,0,0,0,0,0,0,0,0,0,0,0],"sum_hessian":[1.15E2,1.01E2,1.4E1,8.5E1,1.6E1,1E1,4E0,5.2E1,3.3E1,7E0,9E0,3E1,3E0,5E0,2E0,4E0,5E0,1E0,4E0,1E0,1E0],"tree_param":{"num_deleted":"0","num_feature":"15","num_nodes":"21","size_leaf_vector":"1"}},{"base_weights":[1.8998468E-3,-3.4134805E-2,2.9003093E-1,-4.6424452E-2,4.81861E-2,6.022441E-2,1.3221914E-1,-5.639834E-2,-2.8044747E-2,1.7477198E-2,2.070994E-2,-1.8213077E-2,-1.3305686E-2,-9.975593E-3,-6.96476E-3,3.7838295E-3,6.659334E-3,5.93878E-4,-8.525324E-3,1.3949376E-3,3.0778573E-4,-3.019067E-3,-9.359487E-4],"categories":[],"categories_nodes":[],"categories_segments":[],"categories_sizes":[],"default_left":[0,0,0,0,0,0,0,0,0,0,0,0,0,0,0,0,0,0,0,0,0,0,0],"id":1,"left_children":[1,3,5,7,9,-1,-1,11,13,15,-1,-1,-1,-1,17,19,-1,-1,21,-1,-1,-1,-1],"loss_changes":[1.2142936E0,1.0745329E-1,8.643782E-2,1.5100166E-2,7.756144E-3,0E0,0E0,3.1997263E-4,3.5005324E-3,3.684922E-4,0E0,0E0,0E0,0E0,1.2854257E-4,2.3941866E-6,0E0,0E0,2.6807771E-5,0E0,0E0,0E0,0E0],"parents":[2147483647,0,0,1,1,2,2,3,3,4,4,7,7,8,8,9,9,14,14,15,15,18,18],"right_children":[2,4,6,8,10,-1,-1,12,14,16,-1,-1,-1,-1,18,20,-1,-1,22,-1,-1,-1,-1],"split_conditions":[2.8239557E-1,9.612106E-2,6.4300936E-1,3.940306E-2,1.632566E-1,6.022441E-2,1.3221914E-1,2.112734E-2,7.916014E-2,1.2044879E-1,2.070994E-2,-1.8213077E-2,-1.3305686E-2,-9.975593E-3,8.5916504E-2,1.0912191E-1,6.659334E-3,5.93878E-4,1.0449236E-1,1.3949376E-3,3.0778573E-4,-3.019067E-3,-9.359487E-4],"split_indices":[0,0,0,6,0,0,0,6,3,3,0,0,0,0,3,0,0,0,2,0,0,0,0],"split_type":[0,0,0,0,0,0,0,0,0,0,0,0,0,0,0,0,0,0,0,0,0,0,0],"sum_hessian":[1.15E2,1.03E2,1.2E1,9E1,1.3E1,9E0,3E0,5.7E1,3.3E1,6E0,7E0,3.9E1,1.8E1,2.6E1,7E0,2E0,4E0,1E0,6E0,1E0,1E0,4E0,2E0],"tree_param":{"num_deleted":"0","num_feature":"15","num_nodes":"23","size_leaf_vector":"1"}},{"base_weights":[2.8528227E-3,-2.3053681E-2,2.29297E-1,-3.2612488E-2,4.140803E-2,4.617666E-2,1.02469824E-1,-3.814483E-2,-1.435699E-2,2.4267824E-2,2.022205E-2,-1.3296589E-2,-3.1437606E-2,-1.9306073E-2,-4.5132977E-3,3.1148484E-3,8.620583E-3,-2.7339617E-3,-9.541376E-3,-2.3672697E-3,-2.1502292E-2,-6.6603594E-3,-1.643803E-4,-7.2983224E-3,-2.930839E-3,-2.241764E-3,-3.8991385E-4,-8.650426E-4,5.1094295E-4],"categories":[],"categories_nodes":[],"categories_segments":[],"categories_sizes":[],"default_left":[0,0,0,0,0,0,0,0,0,0,0,0,0,0,0,0,0,0,0,0,0,0,0,0,0,0,0,0,0],"id":2,"left_children":[1,3,5,7,9,-1,-1,11,13,15,-1,-1,17,19,21,-1,-1,-1,-1,-1,23,25,27,-1,-1,-1,-1,-1,-1],"loss_changes":[6.857859E-1,6.6048995E-2,4.8972487E-2,8.743964E-3,4.6029296E-3,0E0,0E0,1.5068203E-3,1.0333625E-3,3.2195216E-4,0E0,0E0,1.328066E-5,2.0638108E-4,8.2941755E-5,0E0,0E0,0E0,0E0,0E0,1.6013719E-4,1.6410893E-5,2.5222864E-5,0E0,0E0,0E0,0E0,0E0,0E0],"parents":[2147483647,0,0,1,1,2,2,3,3,4,4,7,7,8,8,9,9,12,12,13,13,14,14,20,20,21,21,22,22],"right_children":[2,4,6,8,10,-1,-1,12,14,16,-1,-1,18,20,22,-1,-1,-1,-1,-1,24,26,28,-1,-1,-1,-1,-1,-1],"split_conditions":[2.9305202E-1,1.0703041E-1,6.4300936E-1,1.37512935E-2,2.3699915E-1,4.617666E-2,1.02469824E-1,1.1397867E-2,7.916014E-2,1.0858943E-1,2.022205E-2,-1.3296589E-2,8.1874547E-4,2.3362413E-2,7.216914E-2,3.1148484E-3,8.620583E-3,-2.7339617E-3,-9.541376E-3,-2.3672697E-3,5.3246126E-2,1.254045E-1,4.518329E-2,-7.2983224E-3,-2.930839E-3,-2.241764E-3,-3.8991385E-4,-8.650426E-4,5.1094295E-4],"split_indices":[0,6,0,4,0,0,0,7,3,2,0,0,6,4,5,0,0,0,0,0,6,2,0,0,0,0,0,0,0],"split_type":[0,0,0,0,0,0,0,0,0,0,0,0,0,0,0,0,0,0,0,0,0,0,0,0,0,0,0,0,0],"sum_hessian":[1.15E2,1.04E2,1.1E1,9.1E1,1.3E1,8E0,3E0,6.9E1,2.2E1,9E0,4E0,3.3E1,3.6E1,1.4E1,8E0,3E0,6E0,1E0,3.5E1,3E0,1.1E1,5E0,3E0,8E0,3E0,4E0,1E0,1E0,2E0],"tree_param":{"num_deleted":"0","num_feature":"15","num_nodes":"29","size_leaf_vector":"1"}},{"base_weights":[3.199129E-3,-1.6225165E-2,1.728951E-1,-2.3276068E-2,3.126829E-2,3.5394E-2,8.949412E-2,-2.8031828E-2,-1.1404626E-2,1.8161017E-2,1.5368757E-2,-8.882289E-3,-5.5814222E-3,-1.4395498E-2,-3.4910638E-3,7.1846996E-4,1.9646708E-2,-1.5240473E-3,-1.5148304E-2,-1.906355E-3,-1.0002516E-3,1.6340476E-3,2.074084E-2,-8.842657E-4,-4.7077835E-3,-7.566786E-4,4.0875375E-4,6.578275E-3,1.8650473E-3],"categories":[],"categories_nodes":[],"categories_segments":[],"categories_sizes":[],"default_left":[0,0,0,0,0,0,0,0,0,0,0,0,0,0,0,0,0,0,0,0,0,0,0,0,0,0,0,0,0],"id":3,"left_children":[1,3,5,7,9,-1,-1,11,13,15,-1,-1,-1,17,19,-1,21,-1,23,-1,25,-1,27,-1,-1,-1,-1,-1,-1],"loss_changes":[3.851672E-1,3.5889346E-2,4.7453463E-2,4.8744157E-3,2.7324865E-3,0E0,0E0,4.1474774E-4,6.1246124E-4,1.8718373E-4,0E0,0E0,0E0,6.329734E-5,5.7834775E-5,0E0,2.6857248E-5,0E0,7.328205E-5,0E0,2.5013518E-5,0E0,1.569977E-6,0E0,0E0,0E0,0E0,0E0,0E0],"parents":[2147483647,0,0,1,1,2,2,3,3,4,4,7,7,8,8,9,9,13,13,14,14,16,16,18,18,20,20,22,22],"right_children":[2,4,6,8,10,-1,-1,12,14,16,-1,-1,-1,18,20,-1,22,-1,24,-1,26,-1,28,-1,-1,-1,-1,-1,-1],"split_conditions":[2.9305202E-1,1.0703041E-1,8.37809E-1,4.2006932E-2,2.3699915E-1,3.5394E-2,8.949412E-2,3.3793572E-2,7.916014E-2,1.2044879E-1,1.5368757E-2,-8.882289E-3,-5.5814222E-3,2.6214574E-2,8.630588E-2,7.1846996E-4,3.7202682E-2,-1.5240473E-3,1.0774547E-2,-1.906355E-3,7.216914E-2,1.6340476E-3,1.1007009E-2,-8.842657E-4,-4.7077835E-3,-7.566786E-4,4.0875375E-4,6.578275E-3,1.8650473E-3],"split_indices":[0,6,0,6,0,0,0,2,3,3,0,0,0,2,2,0,5,0,5,0,5,0,1,0,0,0,0,0,0],"split_type":[0,0,0,0,0,0,0,0,0,0,0,0,0,0,0,0,0,0,0,0,0,0,0,0,0,0,0,0,0],"sum_hessian":[1.15E2,1.04E2,1.1E1,9.1E1,1.3E1,9E0,2E0,6.4E1,2.7E1,9E0,4E0,5.3E1,1.1E1,1.9E1,8E0,1E0,8E0,2E0,1.7E1,3E0,5E0,1E0,7E0,1E0,1.6E1,3E0,2E0,6E0,1E0],"tree_param":{"num_deleted":"0","num_feature":"15","num_nodes":"29","size_leaf_vector":"1"}},{"base_weights":[3.3361015E-3,-9.508122E-3,1.570961E-1,-1.605124E-2,3.212929E-2,2.9910516E-2,7.1595296E-2,-1.9844798E-2,-7.296822E-3,1.5490821E-2,1.3425481E-2,-6.9157723E-3,-1.5582961E-2,-1.0010271E-2,1.4681286E-4,1.3889406E-3,4.914298E-3,-1.4057814E-3,-4.8518693E-3,-1.0951593E-2,-4.6194606E-3,-1.810722E-3,1.3996371E-3,-1.7153308E-3,-3.757432E-3,-1.6821508E-3,-1.00293946E-4,3.27003E-4,-9.567051E-4],"categories":[],"categories_nodes":[],"categories_segments":[],"categories_sizes":[],"default_left":[0,0,0,0,0,0,0,0,0,0,0,0,0,0,0,0,0,0,0,0,0,0,0,0,0,0,0,0,0],"id":4,"left_children":[1,3,5,7,9,-1,-1,11,13,15,-1,-1,17,19,21,-1,-1,-1,-1,23,25,27,-1,-1,-1,-1,-1,-1,-1],"loss_changes":[2.305853E-1,2.993907E-2,1.8333212E-2,2.9769726E-3,2.4570003E-3,0E0,0E0,5.2938797E-4,6.0740754E-4,1.5047844E-6,0E0,0E0,1.2349943E-4,6.104796E-5,8.805647E-5,0E0,0E0,0E0,0E0,7.659383E-5,1.9287836E-5,3.1462507E-5,0E0,0E0,0E0,0E0,0E0,0E0,0E0],"parents":[2147483647,0,0,1,1,2,2,3,3,4,4,7,7,8,8,9,9,12,12,13,13,14,14,19,19,20,20,21,21],"right_children":[2,4,6,8,10,-1,-1,12,14,16,-1,-1,18,20,22,-1,-1,-1,-1,24,26,28,-1,-1,-1,-1,-1,-1,-1],"split_conditions":[3.8666975E-1,1.288497E-1,8.37809E-1,4.2006932E-2,2.3699915E-1,2.9910516E-2,7.1595296E-2,9.961374E-3,7.441351E-2,1.06781356E-1,1.3425481E-2,-6.9157723E-3,1.5743672E-4,5.4265857E-2,1.1798391E-1,1.3889406E-3,4.914298E-3,-1.4057814E-3,-4.8518693E-3,3.4130845E-2,6.990622E-2,1.0221537E-1,1.3996371E-3,-1.7153308E-3,-3.757432E-3,-1.6821508E-3,-1.00293946E-4,3.27003E-4,-9.567051E-4],"split_indices":[6,6,0,6,0,0,0,5,6,2,0,0,2,4,3,0,0,0,0,2,0,7,0,0,0,0,0,0,0],"split_type":[0,0,0,0,0,0,0,0,0,0,0,0,0,0,0,0,0,0,0,0,0,0,0,0,0,0,0,0,0],"sum_hessian":[1.15E2,1.07E2,8E0,9.3E1,1.4E1,6E0,2E0,6.4E1,2.9E1,7E0,7E0,3.4E1,3E1,2.1E1,8E0,1E0,6E0,2E0,2.8E1,1.7E1,4E0,6E0,2E0,5E0,1.2E1,3E0,1E0,2E0,4E0],"tree_param":{"num_deleted":"0","num_feature":"15","num_nodes":"29","size_leaf_vector":"1"}},{"base_weights":[3.2109257E-3,-5.5193305E-3,1.3994196E-1,-1.0853069E-2,3.1830095E-2,2.4409886E-2,5.7276234E-2,-1.3102175E-2,-2.5409626E-4,4.1981614E-3,1.126956E-2,-1.706884E-2,-1.0511937E-2,-2.9887168E-3,5.713264E-3,-5.243388E-3,-7.80657E-4,-1.1019565E-2,-1.091351E-3,-3.9430493E-3,1.4429353E-4,4.0075445E-4,1.8964735E-3,-3.363896E-3,-1.3335199E-3,-1.4250507E-3,-1.4291407E-4,-3.058266E-4,2.6160182E-4],"categories":[],"categories_nodes":[],"categories_segments":[],"categories_sizes":[],"default_left":[0,0,0,0,0,0,0,0,0,0,0,0,0,0,0,0,0,0,0,0,0,0,0,0,0,0,0,0,0],"id":5,"left_children":[1,3,5,7,9,-1,-1,11,13,-1,-1,15,17,19,21,-1,-1,23,-1,25,27,-1,-1,-1,-1,-1,-1,-1,-1],"loss_changes":[1.3924123E-1,2.225878E-2,5.368322E-3,2.3089787E-3,9.0641435E-4,0E0,0E0,6.425418E-4,3.1080772E-4,0E0,0E0,1.3207551E-4,1.3787625E-4,3.9438077E-5,7.5323624E-6,0E0,0E0,9.925105E-6,0E0,2.5717294E-5,4.276343E-6,0E0,0E0,0E0,0E0,0E0,0E0,0E0,0E0],"parents":[2147483647,0,0,1,1,2,2,3,3,4,4,7,7,8,8,11,11,12,12,13,13,14,14,17,17,19,19,20,20],"right_children":[2,4,6,8,10,-1,-1,12,14,-1,-1,16,18,20,22,-1,-1,24,-1,26,28,-1,-1,-1,-1,-1,-1,-1,-1],"split_conditions":[5.057545E-1,1.632566E-1,8.37809E-1,5.3246126E-2,2.3699915E-1,2.4409886E-2,5.7276234E-2,1.2827805E-2,1.1798391E-1,4.1981614E-3,1.126956E-2,3.0690538E-2,8.104947E-2,5.7938606E-2,1.2044879E-1,-5.243388E-3,-7.80657E-4,4.6E1,-1.091351E-3,1.0262915E-1,4.518329E-2,4.0075445E-4,1.8964735E-3,-3.363896E-3,-1.3335199E-3,-1.4250507E-3,-1.4291407E-4,-3.058266E-4,2.6160182E-4],"split_indices":[0,0,0,6,0,0,0,6,3,0,0,0,7,5,3,0,0,8,0,2,0,0,0,0,0,0,0,0,0],"split_type":[0,0,0,0,0,0,0,0,0,0,0,0,0,0,0,0,0,0,0,0,0,0,0,0,0,0,0,0,0],"sum_hessian":[1.15E2,1.09E2,6E0,9.6E1,1.3E1,4E0,2E0,7.9E1,1.7E1,4E0,9E0,2.9E1,5E1,1.2E1,5E0,2.8E1,1E0,4.6E1,4E0,9E0,3E0,1E0,4E0,4.4E1,2E0,7E0,2E0,1E0,2E0],"tree_param":{"num_deleted":"0","num_feature":"15","num_nodes":"29","size_leaf_vector":"1"}},{"base_weights":[2.9892516E-3,-3.8240773E-3,1.0962881E-1,-7.7118673E-3,2.3385901E-2,1.8551514E-2,4.582098E-2,-9.319182E-3,-1.3980932E-4,3.1906024E-3,8.226777E-3,-4.277731E-3,-7.95983E-3,-2.2161168E-3,4.382158E-3,-8.996356E-3,-5.814248E-3,-2.9169307E-3,8.9947134E-5,3.4064168E-4,1.4413204E-3,-2.813278E-3,-9.090624E-4,-2.015359E-3,1.14987146E-4,-1.4012057E-4,-1.1700443E-3,-2.59953E-4,2.0928086E-4],"categories":[],"categories_nodes":[],"categories_segments":[],"categories_sizes":[],"default_left":[0,0,0,0,0,0,0,0,0,0,0,0,0,0,0,0,0,0,0,0,0,0,0,0,0,0,0,0,0],"id":6,"left_children":[1,3,5,7,9,-1,-1,11,13,-1,-1,-1,15,17,19,21,23,25,27,-1,-1,-1,-1,-1,-1,-1,-1,-1,-1],"loss_changes":[8.47014E-2,1.1816883E-2,4.9760044E-3,1.1792528E-3,4.2893318E-4,0E0,0E0,4.2370753E-4,1.787133E-4,0E0,0E0,0E0,9.224983E-5,2.1271953E-5,2.770059E-6,6.71132E-5,1.3697939E-4,2.226582E-5,2.9292662E-6,0E0,0E0,0E0,0E0,0E0,0E0,0E0,0E0,0E0,0E0],"parents":[2147483647,0,0,1,1,2,2,3,3,4,4,7,7,8,8,12,12,13,13,14,14,15,15,16,16,17,17,18,18],"right_children":[2,4,6,8,10,-1,-1,12,14,-1,-1,-1,16,18,20,22,24,26,28,-1,-1,-1,-1,-1,-1,-1,-1,-1,-1],"split_conditions":[5.057545E-1,1.632566E-1,8.37809E-1,5.3246126E-2,2.3699915E-1,1.8551514E-2,4.582098E-2,3.6835684E-3,1.1798391E-1,3.1906024E-3,8.226777E-3,-4.277731E-3,3.388747E-2,5.7938606E-2,1.2044879E-1,8.104947E-2,4.686683E-2,4.9400285E-2,4.518329E-2,3.4064168E-4,1.4413204E-3,-2.813278E-3,-9.090624E-4,-2.015359E-3,1.14987146E-4,-1.4012057E-4,-1.1700443E-3,-2.59953E-4,2.0928086E-4],"split_indices":[0,0,0,6,0,0,0,7,3,0,0,0,0,5,3,7,7,5,0,0,0,0,0,0,0,0,0,0,0],"split_type":[0,0,0,0,0,0,0,0,0,0,0,0,0,0,0,0,0,0,0,0,0,0,0,0,0,0,0,0,0],"sum_hessian":[1.15E2,1.09E2,6E0,9.6E1,1.3E1,4E0,2E0,7.9E1,1.7E1,4E0,9E0,1.5E1,6.4E1,1.2E1,5E0,4.1E1,2.3E1,9E0,3E0,1E0,4E0,3.8E1,3E0,2E1,3E0,3E0,6E0,1E0,2E0],"tree_param":{"num_deleted":"0","num_feature":"15","num_nodes":"29","size_leaf_vector":"1"}},{"base_weights":[2.664119E-3,-2.6592354E-3,8.593624E-2,-5.3842478E-3,1.8087722E-2,1.4099148E-2,3.6656793E-2,-6.6471826E-3,2.1675347E-4,2.859498E-3,6.2494036E-3,-9.169988E-3,-5.2626836E-3,-1.6559609E-3,3.6636868E-3,-3.2106137E-3,-2.09488E-3,-6.4047584E-3,-4.057283E-3,-8.7114464E-4,-7.7871274E-4,4.2468237E-4,1.2839391E-3,-3.6125444E-4,-1.9693843E-3,-1.5101327E-3,-6.763312E-4,-4.919187E-4,7.1413815E-5],"categories":[],"categories_nodes":[],"categories_segments":[],"categories_sizes":[],"default_left":[0,0,0,0,0,0,0,0,0,0,0,0,0,0,0,0,0,0,0,0,0,0,0,0,0,0,0,0,0],"id":7,"left_children":[1,3,5,7,9,-1,-1,11,13,-1,-1,15,17,19,21,-1,-1,23,25,-1,27,-1,-1,-1,-1,-1,-1,-1,-1],"loss_changes":[5.164982E-2,6.316318E-3,4.139073E-3,6.9466303E-4,1.0661222E-4,0E0,0E0,2.311673E-4,1.2871424E-4,0E0,0E0,1.5737023E-5,4.8353686E-5,1.1969576E-5,3.636931E-6,0E0,0E0,1.3709883E-5,3.9705134E-5,0E0,8.269344E-6,0E0,0E0,0E0,0E0,0E0,0E0,0E0,0E0],"parents":[2147483647,0,0,1,1,2,2,3,3,4,4,7,7,8,8,11,11,12,12,13,13,14,14,17,17,18,18,20,20],"right_children":[2,4,6,8,10,-1,-1,12,14,-1,-1,16,18,20,22,-1,-1,24,26,-1,28,-1,-1,-1,-1,-1,-1,-1,-1],"split_conditions":[5.057545E-1,1.9399674E-1,8.37809E-1,5.3246126E-2,2.6107585E-1,1.4099148E-2,3.6656793E-2,1.0869565E-2,1.1798391E-1,2.859498E-3,6.2494036E-3,7.368709E-3,2.2242934E-2,4.353216E-2,1.351381E-1,-3.2106137E-3,-2.09488E-3,1.5743672E-4,3.836317E-2,-8.7114464E-4,6.415175E-2,4.2468237E-4,1.2839391E-3,-3.6125444E-4,-1.9693843E-3,-1.5101327E-3,-6.763312E-4,-4.919187E-4,7.1413815E-5],"split_indices":[0,4,0,6,3,0,0,0,3,0,0,6,7,2,3,0,0,2,0,0,0,0,0,0,0,0,0,0,0],"split_type":[0,0,0,0,0,0,0,0,0,0,0,0,0,0,0,0,0,0,0,0,0,0,0,0,0,0,0,0,0],"sum_hessian":[1.15E2,1.09E2,6E0,9.7E1,1.2E1,4E0,2E0,7.9E1,1.8E1,4E0,8E0,2.6E1,5.3E1,1.2E1,6E0,1.3E1,1.3E1,2.5E1,2.8E1,4E0,8E0,2E0,4E0,1E0,2.4E1,1.7E1,1.1E1,4E0,4E0],"tree_param":{"num_deleted":"0","num_feature":"15","num_nodes":"29","size_leaf_vector":"1"}},{"base_weights":[2.2998767E-3,-1.8641623E-3,6.740622E-2,-3.8649496E-3,1.3362093E-2,1.0715354E-2,2.9325433E-2,-5.4811765E-3,-1.4843123E-3,9.196244E-3,6.1308574E-3,-2.3283146E-3,-4.5793755E-3,-2.4611524E-3,2.262358E-3,2.8854574E-3,8.098081E-4,-4.7349776E-3,-1.839607E-3,-3.5641445E-3,-8.999524E-4,2.458799E-4,9.7579346E-4,-1.4408265E-3,-3.0358584E-4,-8.460746E-4,1.6534758E-4,-1.2981874E-4,-1.3954793E-3,4.912231E-4,-5.914456E-4],"categories":[],"categories_nodes":[],"categories_segments":[],"categories_sizes":[],"default_left":[0,0,0,0,0,0,0,0,0,0,0,0,0,0,0,0,0,0,0,0,0,0,0,0,0,0,0,0,0,0,0],"id":8,"left_children":[1,3,5,7,9,-1,-1,11,13,15,-1,-1,17,19,21,-1,-1,23,25,27,29,-1,-1,-1,-1,-1,-1,-1,-1,-1,-1],"loss_changes":[3.1573877E-2,3.4027386E-3,3.2396652E-3,3.6893378E-4,1.9516889E-4,0E0,0E0,8.370681E-5,1.556238E-4,1.4504767E-6,0E0,0E0,1.0047399E-5,5.3618147E-5,1.0192834E-5,0E0,0E0,5.485548E-6,1.0932338E-5,6.2687235E-5,4.4011143E-5,0E0,0E0,0E0,0E0,0E0,0E0,0E0,0E0,0E0,0E0],"parents":[2147483647,0,0,1,1,2,2,3,3,4,4,7,7,8,8,9,9,12,12,13,13,14,14,17,17,18,18,19,19,20,20],"right_children":[2,4,6,8,10,-1,-1,12,14,16,-1,-1,18,20,22,-1,-1,24,26,28,30,-1,-1,-1,-1,-1,-1,-1,-1,-1,-1],"split_conditions":[5.057545E-1,1.9399674E-1,8.37809E-1,3.1770777E-2,3.864761E-1,1.0715354E-2,2.9325433E-2,4.688832E-3,9.782139E-2,2.9763466E-1,6.1308574E-3,-2.3283146E-3,5.1356483E-2,1.4194884E-2,1.351381E-1,2.8854574E-3,8.098081E-4,4.6E1,6.2872976E-2,3.777302E-2,2.3362413E-2,2.458799E-4,9.7579346E-4,-1.4408265E-3,-3.0358584E-4,-8.460746E-4,1.6534758E-4,-1.2981874E-4,-1.3954793E-3,4.912231E-4,-5.914456E-4],"split_indices":[0,4,0,7,6,0,0,0,6,2,0,0,3,4,3,0,0,8,0,7,4,0,0,0,0,0,0,0,0,0,0],"split_type":[0,0,0,0,0,0,0,0,0,0,0,0,0,0,0,0,0,0,0,0,0,0,0,0,0,0,0,0,0,0,0],"sum_hessian":[1.15E2,1.09E2,6E0,9.7E1,1.2E1,4E0,2E0,5.7E1,4E1,9E0,3E0,1.4E1,4.3E1,3.2E1,8E0,8E0,1E0,4E1,3E0,1.8E1,1.4E1,4E0,4E0,3.9E1,1E0,2E0,1E0,5E0,1.3E1,4E0,1E1],"tree_param":{"num_deleted":"0","num_feature":"15","num_nodes":"31","size_leaf_vector":"1"}},{"base_weights":[1.9953412E-3,-1.2624697E-3,5.290446E-2,-2.6959504E-3,1.0668952E-2,9.412458E-3,2.731231E-2,-3.3552807E-3,9.3403016E-4,2.15584E-3,4.7514173E-3,-5.2336818E-3,-2.7256913E-3,-4.1277998E-4,6.9973135E-4,-1.6260461E-3,-2.536074E-4,-3.3062352E-3,-1.9381825E-3,-5.145185E-4,2.0430928E-4,2.662886E-4,-1.0354263E-3,1.664497E-5,-7.017405E-4,1.6804348E-4,-6.0781094E-5],"categories":[],"categories_nodes":[],"categories_segments":[],"categories_sizes":[],"default_left":[0,0,0,0,0,0,0,0,0,0,0,0,0,0,0,0,0,0,0,0,0,0,0,0,0,0,0],"id":9,"left_children":[1,3,5,7,9,-1,-1,11,13,-1,-1,15,17,19,-1,-1,-1,21,23,-1,25,-1,-1,-1,-1,-1,-1],"loss_changes":[1.9305656E-2,1.910144E-3,2.8910544E-3,2.4007616E-4,1.022222E-4,0E0,0E0,8.5074746E-5,3.1097014E-5,0E0,0E0,1.17840245E-5,2.3308821E-5,7.583019E-6,0E0,0E0,0E0,2.4983543E-5,2.4110741E-5,0E0,1.1270462E-6,0E0,0E0,0E0,0E0,0E0,0E0],"parents":[2147483647,0,0,1,1,2,2,3,3,4,4,7,7,8,8,11,11,12,12,13,13,17,17,18,18,20,20],"right_children":[2,4,6,8,10,-1,-1,12,14,-1,-1,16,18,20,-1,-1,-1,22,24,-1,26,-1,-1,-1,-1,-1,-1],"split_conditions":[5.057545E-1,1.9895017E-1,1E0,6.951078E-2,3.864761E-1,9.412458E-3,2.731231E-2,4.2755706E-3,1.1798391E-1,2.15584E-3,4.7514173E-3,4.5098327E-3,3.175618E-2,4.353216E-2,6.9973135E-4,-1.6260461E-3,-2.536074E-4,1.5743672E-4,3.8444477E-3,-5.145185E-4,9.408129E-2,2.662886E-4,-1.0354263E-3,1.664497E-5,-7.017405E-4,1.6804348E-4,-6.0781094E-5],"split_indices":[0,4,0,6,6,0,0,7,3,0,0,4,0,2,0,0,0,2,4,0,3,0,0,0,0,0,0],"split_type":[0,0,0,0,0,0,0,0,0,0,0,0,0,0,0,0,0,0,0,0,0,0,0,0,0,0,0],"sum_hessian":[1.15E2,1.09E2,6E0,9.8E1,1.1E1,5E0,1E0,8.3E1,1.5E1,8E0,3E0,1.9E1,6.4E1,8E0,7E0,1.8E1,1E0,3.5E1,2.9E1,2E0,6E0,1E0,3.4E1,5E0,2.4E1,3E0,3E0],"tree_param":{"num_deleted":"0","num_feature":"15","num_nodes":"27","size_leaf_vector":"1"}},{"base_weights":[1.7466577E-3,4.152311E-5,1.9787867E-2,-1.3312362E-3,1.8396989E-2,-2.2133929E-3,3.8243672E-3,1.5042783E-3,2.2022188E-2,-2.9567431E-3,-1.1731192E-3,1.7201751E-3,5.2698306E-3,1.7697663E-3,7.220081E-3,-1.307727E-3,-2.4399809E-3,-1.9012238E-3,-7.6199714E-5,1.5062392E-4,6.1275816E-4,1.687328E-3,3.6495924E-4,-5.3295516E-4,-8.9617656E-4,-4.9547293E-6,-8.527637E-4,5.095813E-4,-2.2588654E-4],"categories":[],"categories_nodes":[],"categories_segments":[],"categories_sizes":[],"default_left":[0,0,0,0,0,0,0,0,0,0,0,0,0,0,0,0,0,0,0,0,0,0,0,0,0,0,0,0,0],"id":10,"left_children":[1,3,-1,5,7,9,11,-1,13,15,17,19,21,-1,-1,-1,23,25,27,-1,-1,-1,-1,-1,-1,-1,-1,-1,-1],"loss_changes":[1.269829E-2,2.8970211E-3,0E0,4.951062E-4,2.776957E-4,6.76738E-5,3.9599487E-5,0E0,5.5828365E-5,2.7771923E-5,3.1802007E-5,2.1157302E-6,6.093236E-6,0E0,0E0,0E0,9.58005E-6,4.253185E-5,2.169781E-5,0E0,0E0,0E0,0E0,0E0,0E0,0E0,0E0,0E0,0E0],"parents":[2147483647,0,0,1,1,3,3,4,4,5,5,6,6,8,8,9,9,10,10,11,11,12,12,16,16,17,17,18,18],"right_children":[2,4,-1,6,8,10,12,-1,14,16,18,20,22,-1,-1,-1,24,26,28,-1,-1,-1,-1,-1,-1,-1,-1,-1,-1],"split_conditions":[8.37809E-1,3.864761E-1,1.9787867E-2,1.0703041E-1,1.815E3,2.566804E-2,1.9895017E-1,1.5042783E-3,3.2340556E-1,4.2625745E-3,1.4194884E-2,1.351381E-1,2.9763466E-1,1.7697663E-3,7.220081E-3,-1.307727E-3,1.0164668E-2,4.8055598E-3,2.3362413E-2,1.5062392E-4,6.1275816E-4,1.687328E-3,3.6495924E-4,-5.3295516E-4,-8.9617656E-4,-4.9547293E-6,-8.527637E-4,5.095813E-4,-2.2588654E-4],"split_indices":[0,6,0,6,10,7,4,0,2,0,4,3,2,0,0,0,5,4,4,0,0,0,0,0,0,0,0,0,0],"split_type":[0,0,0,0,0,0,0,0,0,0,0,0,0,0,0,0,0,0,0,0,0,0,0,0,0,0,0,0,0],"sum_hessian":[1.15E2,1.13E2,2E0,1.06E2,7E0,9.1E1,1.5E1,2E0,5E0,5.2E1,3.9E1,7E0,8E0,1E0,4E0,1.2E1,4E1,2.3E1,1.6E1,2E0,5E0,7E0,1E0,2E1,2E1,8E0,1.5E1,4E0,1.2E1],"tree_param":{"num_deleted":"0","num_feature":"15","num_nodes":"29","size_leaf_vector":"1"}},{"base_weights":[1.4794427E-3,3.1855208E-4,2.024728E-2,-9.3649345E-4,1.5204255E-2,-1.5853628E-3,2.8530364E-3,6.616802E-3,8.102377E-3,-2.1984847E-3,-7.690775E-4,1.4343121E-3,4.0924717E-3,2.7487352E-3,4.2030218E-4,-9.840725E-4,-1.7537903E-3,3.2740762E-4,-1.0876955E-3,1.2049974E-4,5.0159195E-4,1.3145002E-3,3.1021537E-4,-4.2908223E-4,-1.1002941E-3,3.182255E-4,-9.409033E-4,-5.4257177E-4,-7.6134784E-5],"categories":[],"categories_nodes":[],"categories_segments":[],"categories_sizes":[],"default_left":[0,0,0,0,0,0,0,0,0,0,0,0,0,0,0,0,0,0,0,0,0,0,0,0,0,0,0,0,0],"id":11,"left_children":[1,3,-1,5,7,9,11,-1,13,15,17,19,21,-1,-1,-1,23,25,27,-1,-1,-1,-1,-1,-1,-1,-1,-1,-1],"loss_changes":[8.867827E-3,2.1626956E-3,0E0,2.6762646E-4,2.5923643E-4,4.4353554E-5,2.2264794E-5,0E0,2.9786985E-5,1.9261817E-5,1.4679872E-5,1.5372025E-6,2.5449845E-6,0E0,0E0,0E0,1.8901635E-5,2.87281E-5,1.8777773E-5,0E0,0E0,0E0,0E0,0E0,0E0,0E0,0E0,0E0,0E0],"parents":[2147483647,0,0,1,1,3,3,4,4,5,5,6,6,8,8,9,9,10,10,11,11,12,12,16,16,17,17,18,18],"right_children":[2,4,-1,6,8,10,12,-1,14,16,18,20,22,-1,-1,-1,24,26,28,-1,-1,-1,-1,-1,-1,-1,-1,-1,-1],"split_conditions":[1E0,3.864761E-1,2.024728E-2,1.0703041E-1,1.12E2,3.0264279E-2,2.0819163E-1,6.616802E-3,8.2296544E-1,3.4862345E-3,1.8499695E-2,1.351381E-1,2.9763466E-1,2.7487352E-3,4.2030218E-4,-9.840725E-4,4.320737E-2,1.6795059E-1,3.641178E-2,1.2049974E-4,5.0159195E-4,1.3145002E-3,3.1021537E-4,-4.2908223E-4,-1.1002941E-3,3.182255E-4,-9.409033E-4,-5.4257177E-4,-7.6134784E-5],"split_indices":[0,6,0,6,8,0,4,0,3,7,5,3,2,0,0,0,3,1,7,0,0,0,0,0,0,0,0,0,0],"split_type":[0,0,0,0,0,0,0,0,0,0,0,0,0,0,0,0,0,0,0,0,0,0,0,0,0,0,0,0,0],"sum_hessian":[1.15E2,1.14E2,1E0,1.06E2,8E0,9.1E1,1.5E1,3E0,5E0,5.1E1,4E1,8E0,7E0,4E0,1E0,1.3E1,3.8E1,9E0,3.1E1,2E0,6E0,6E0,1E0,3.4E1,4E0,8E0,1E0,1.6E1,1.5E1],"tree_param":{"num_deleted":"0","num_feature":"15","num_nodes":"29","size_leaf_vector":"1"}},{"base_weights":[1.2815164E-3,2.9496787E-4,1.721019E-2,-6.6963834E-4,1.173029E-2,-1.150567E-3,2.1375534E-3,5.1280195E-3,6.1998367E-3,-2.0361799E-3,-8.258528E-4,3.2194235E-4,9.20347E-4,2.0890404E-3,3.5725237E-4,-6.9972733E-4,-1.2832811E-3,3.7302694E-4,-9.0618077E-4,-2.0415451E-4,-5.59983E-4,-3.2779944E-4,-1.4251041E-5],"categories":[],"categories_nodes":[],"categories_segments":[],"categories_sizes":[],"default_left":[0,0,0,0,0,0,0,0,0,0,0,0,0,0,0,0,0,0,0,0,0,0,0],"id":12,"left_children":[1,3,-1,5,7,9,11,-1,13,15,17,-1,-1,-1,-1,-1,19,-1,21,-1,-1,-1,-1],"loss_changes":[6.4015137E-3,1.2763721E-3,0E0,1.4691569E-4,1.6096747E-4,2.4774963E-5,1.2550845E-5,0E0,1.465778E-5,2.3598477E-6,1.2595996E-5,0E0,0E0,0E0,0E0,0E0,1.8942419E-6,0E0,1.067678E-5,0E0,0E0,0E0,0E0],"parents":[2147483647,0,0,1,1,3,3,4,4,5,5,6,6,8,8,9,9,10,10,16,16,18,18],"right_children":[2,4,-1,6,8,10,12,-1,14,16,18,-1,-1,-1,-1,-1,20,-1,22,-1,-1,-1,-1],"split_conditions":[1E0,3.864761E-1,1.721019E-2,1.0703041E-1,1.12E2,8.31202E-3,2.0819163E-1,5.1280195E-3,8.2296544E-1,1.0986089E-2,1.5743672E-4,3.2194235E-4,9.20347E-4,2.0890404E-3,3.5725237E-4,-6.9972733E-4,1.8347545E-2,3.7302694E-4,7.7629015E-2,-2.0415451E-4,-5.59983E-4,-3.2779944E-4,-1.4251041E-5],"split_indices":[0,6,0,6,8,0,4,0,3,6,2,0,0,0,0,0,2,0,7,0,0,0,0],"split_type":[0,0,0,0,0,0,0,0,0,0,0,0,0,0,0,0,0,0,0,0,0,0,0],"sum_hessian":[1.15E2,1.14E2,1E0,1.06E2,8E0,9.1E1,1.5E1,3E0,5E0,2.3E1,6.8E1,8E0,7E0,4E0,1E0,1.5E1,8E0,2E0,6.6E1,5E0,3E0,5.4E1,1.2E1],"tree_param":{"num_deleted":"0","num_feature":"15","num_nodes":"23","size_leaf_vector":"1"}},{"base_weights":[1.1090774E-3,2.7068317E-4,1.4628661E-2,-5.1518617E-4,8.57383E-3,-8.631925E-4,1.2341333E-3,4.5391354E-3,5.043369E-3,-1.188922E-3,-3.7327758E-4,1.6292497E-4,5.594522E-4,1.6423946E-3,3.0366183E-4,-9.723387E-4,-2.2856602E-3,6.1266124E-4,-6.66387E-4,-3.746712E-4,2.240819E-4,-8.016718E-4,6.305874E-5,3.9442262E-4,-7.505978E-4,-6.424732E-4,-1.4333878E-4],"categories":[],"categories_nodes":[],"categories_segments":[],"categories_sizes":[],"default_left":[0,0,0,0,0,0,0,0,0,0,0,0,0,0,0,0,0,0,0,0,0,0,0,0,0,0,0],"id":13,"left_children":[1,3,-1,5,7,9,11,-1,13,15,17,-1,-1,-1,-1,19,21,23,25,-1,-1,-1,-1,-1,-1,-1,-1],"loss_changes":[4.621245E-3,7.5481384E-4,0E0,6.559536E-5,1.551705E-4,1.3758792E-5,6.8325407E-6,0E0,8.3669875E-6,1.036693E-5,1.1100823E-5,0E0,0E0,0E0,0E0,2.2805514E-5,8.2804545E-6,2.2970122E-5,7.0447877E-6,0E0,0E0,0E0,0E0,0E0,0E0,0E0,0E0],"parents":[2147483647,0,0,1,1,3,3,4,4,5,5,6,6,8,8,9,9,10,10,15,15,16,16,17,17,18,18],"right_children":[2,4,-1,6,8,10,12,-1,14,16,18,-1,-1,-1,-1,20,22,24,26,-1,-1,-1,-1,-1,-1,-1,-1],"split_conditions":[1E0,3.271526E-1,1.4628661E-2,9.1117725E-2,8.4E1,3.0690538E-2,1.9399674E-1,4.5391354E-3,8.2296544E-1,3.672413E-2,1.8499695E-2,1.6292497E-4,5.594522E-4,1.6423946E-3,3.0366183E-4,3.1770777E-2,7.7629015E-2,1.6795059E-1,2.0532629E-2,-3.746712E-4,2.240819E-4,-8.016718E-4,6.305874E-5,3.9442262E-4,-7.505978E-4,-6.424732E-4,-1.4333878E-4],"split_indices":[0,0,0,6,8,0,4,0,3,3,5,0,0,0,0,7,7,1,5,0,0,0,0,0,0,0,0],"split_type":[0,0,0,0,0,0,0,0,0,0,0,0,0,0,0,0,0,0,0,0,0,0,0,0,0,0,0],"sum_hessian":[1.15E2,1.14E2,1E0,1.05E2,9E0,8.8E1,1.7E1,2E0,7E0,5.2E1,3.6E1,9E0,8E0,6E0,1E0,4.5E1,7E0,8E0,2.8E1,3.9E1,6E0,6E0,1E0,7E0,1E0,2E0,2.6E1],"tree_param":{"num_deleted":"0","num_feature":"15","num_nodes":"27","size_leaf_vector":"1"}},{"base_weights":[9.470867E-4,2.344896E-4,1.2434364E-2,-3.163221E-4,7.6411366E-3,-5.7240966E-4,1.4440092E-3,4.391398E-3,4.5504444E-3,-4.2290668E-4,-4.2247894E-4,1.6133451E-4,1.8877155E-3,2.5810898E-4,1.5066193E-3,2.7449414E-4,-4.8485058E-4,6.536339E-4,1.7379821E-4,-2.0593502E-4,-2.1348264E-5],"categories":[],"categories_nodes":[],"categories_segments":[],"categories_sizes":[],"default_left":[0,0,0,0,0,0,0,0,0,0,0,0,0,0,0,0,0,0,0,0,0],"id":14,"left_children":[1,3,-1,5,7,9,11,-1,13,-1,15,-1,17,-1,-1,-1,19,-1,-1,-1,-1],"loss_changes":[3.3381274E-3,4.7157888E-4,0E0,4.951285E-5,1.0639161E-4,1.1330154E-5,4.614203E-6,0E0,7.861396E-6,0E0,7.2840294E-6,0E0,2.1652013E-6,0E0,0E0,0E0,6.5397217E-6,0E0,0E0,0E0,0E0],"parents":[2147483647,0,0,1,1,3,3,4,4,5,5,6,6,8,8,10,10,12,12,16,16],"right_children":[2,4,-1,6,8,10,12,-1,14,-1,16,-1,18,-1,-1,-1,20,-1,-1,-1,-1],"split_conditions":[1E0,3.8666975E-1,1.2434364E-2,1.2468031E-1,1.575E3,1.4786337E-3,1.04E3,4.391398E-3,3.885E4,-4.2290668E-4,3.6312017E-4,1.6133451E-4,2.4862777E-1,2.5810898E-4,1.5066193E-3,2.7449414E-4,4.4543903E-2,6.536339E-4,1.7379821E-4,-2.0593502E-4,-2.1348264E-5],"split_indices":[0,6,0,0,11,4,10,0,13,0,2,0,5,0,0,0,0,0,0,0,0],"split_type":[0,0,0,0,0,0,0,0,0,0,0,0,0,0,0,0,0,0,0,0,0],"sum_hessian":[1.15E2,1.14E2,1E0,1.07E2,7E0,9.4E1,1.3E1,1E0,6E0,1.3E1,8.1E1,5E0,8E0,1E0,5E0,3E0,7.8E1,6E0,2E0,5.2E1,2.6E1],"tree_param":{"num_deleted":"0","num_feature":"15","num_nodes":"21","size_leaf_vector":"1"}},{"base_weights":[8.285085E-4,2.2300516E-4,1.0569209E-2,-2.1627232E-4,6.1253756E-3,-4.242086E-4,1.0058745E-3,3.7326873E-3,3.445489E-3,-6.9505593E-4,-1.443356E-4,1.4741265E-4,1.5971767E-3,2.1939576E-4,3.7759643E-3,-3.3823392E-4,-1.3652589E-3,3.0119412E-4,-7.102864E-4,5.5379793E-4,1.564175E-5,3.1475723E-4,1.2334443E-3,-2.3236412E-4,2.0973291E-4,2.3336966E-4,-4.6799882E-4,-3.7314915E-4,1.871921E-4,-5.4257124E-4,-9.58818E-6],"categories":[],"categories_nodes":[],"categories_segments":[],"categories_sizes":[],"default_left":[0,0,0,0,0,0,0,0,0,0,0,0,0,0,0,0,0,0,0,0,0,0,0,0,0,0,0,0,0,0,0],"id":15,"left_children":[1,3,-1,5,7,9,11,-1,13,15,17,-1,19,-1,21,23,25,27,29,-1,-1,-1,-1,-1,-1,-1,-1,-1,-1,-1,-1],"loss_changes":[2.4084975E-3,2.9949425E-4,0E0,2.7872598E-5,9.2559145E-5,6.9493453E-6,4.0827763E-6,0E0,3.5173143E-6,1.0777952E-5,1.2064885E-5,0E0,2.5947684E-6,0E0,1.1755401E-6,1.5024906E-5,7.891158E-6,1.4241078E-5,1.5587082E-5,0E0,0E0,0E0,0E0,0E0,0E0,0E0,0E0,0E0,0E0,0E0,0E0],"parents":[2147483647,0,0,1,1,3,3,4,4,5,5,6,6,8,8,9,9,10,10,12,12,14,14,15,15,16,16,17,17,18,18],"right_children":[2,4,-1,6,8,10,12,-1,14,16,18,-1,20,-1,22,24,26,28,30,-1,-1,-1,-1,-1,-1,-1,-1,-1,-1,-1,-1],"split_conditions":[1E0,3.7670588E-1,1.0569209E-2,1.0858943E-1,1.575E3,2.1739632E-2,2.6107585E-1,3.7326873E-3,3.885E4,1.0164668E-2,4.5676548E-2,1.4741265E-4,3.2340556E-1,2.1939576E-4,3.7190965E-1,1.172208E-2,1.4116332E-3,9.961374E-3,5.3246126E-2,5.5379793E-4,1.564175E-5,3.1475723E-4,1.2334443E-3,-2.3236412E-4,2.0973291E-4,2.3336966E-4,-4.6799882E-4,-3.7314915E-4,1.871921E-4,-5.4257124E-4,-9.58818E-6],"split_indices":[0,2,0,2,11,7,3,0,13,5,6,0,2,0,0,0,3,5,6,0,0,0,0,0,0,0,0,0,0,0,0],"split_type":[0,0,0,0,0,0,0,0,0,0,0,0,0,0,0,0,0,0,0,0,0,0,0,0,0,0,0,0,0,0,0],"sum_hessian":[1.15E2,1.14E2,1E0,1.07E2,7E0,9.2E1,1.5E1,1E0,6E0,4.6E1,4.6E1,9E0,6E0,1E0,5E0,3.1E1,1.5E1,2.6E1,2E1,5E0,1E0,1E0,4E0,2.2E1,9E0,1E0,1.4E1,4E0,2.2E1,7E0,1.3E1],"tree_param":{"num_deleted":"0","num_feature":"15","num_nodes":"31","size_leaf_vector":"1"}},{"base_weights":[7.1608444E-4,2.0150971E-4,8.983827E-3,-1.05721956E-4,5.8005056E-3,-3.1311638E-4,9.716894E-4,3.1727853E-3,2.7302266E-3,-2.1801991E-4,-9.3684933E-4,1.2286463E-4,4.4649743E-4,1.8648506E-4,9.305925E-4,-3.8030752E-4,7.6035014E-4,-1.426605E-3,1.0238886E-5,-8.948227E-5,-6.4209104E-4,-1.7915075E-4,2.8141474E-4,2.3067E-5,-7.0322404E-4],"categories":[],"categories_nodes":[],"categories_segments":[],"categories_sizes":[],"default_left":[0,0,0,0,0,0,0,0,0,0,0,0,0,0,0,0,0,0,0,0,0,0,0,0,0],"id":16,"left_children":[1,3,-1,5,7,9,11,-1,13,15,17,-1,-1,-1,-1,19,21,23,-1,-1,-1,-1,-1,-1,-1],"loss_changes":[1.738724E-3,1.9843497E-4,0E0,2.4883655E-5,5.9096943E-5,5.3120257E-6,4.6180485E-6,0E0,1.9911204E-6,1.3308909E-5,5.7551997E-6,0E0,0E0,0E0,0E0,9.612456E-6,3.4549316E-6,1.12155885E-5,0E0,0E0,0E0,0E0,0E0,0E0,0E0],"parents":[2147483647,0,0,1,1,3,3,4,4,5,5,6,6,8,8,9,9,10,10,15,15,16,16,17,17],"right_children":[2,4,-1,6,8,10,12,-1,14,16,18,-1,-1,-1,-1,20,22,24,-1,-1,-1,-1,-1,-1,-1],"split_conditions":[1E0,5.057545E-1,8.983827E-3,6.2207766E-2,5.569054E-1,4.9400285E-2,2.6107585E-1,3.1727853E-3,3.885E4,4.9445864E-2,7.95505E-2,1.2286463E-4,4.4649743E-4,1.8648506E-4,9.305925E-4,4.943513E-2,1.4121239E-2,4.9658995E-2,1.0238886E-5,-8.948227E-5,-6.4209104E-4,-1.7915075E-4,2.8141474E-4,2.3067E-5,-7.0322404E-4],"split_indices":[0,0,0,5,0,5,3,0,13,0,4,0,0,0,0,6,2,0,0,0,0,0,0,0,0],"split_type":[0,0,0,0,0,0,0,0,0,0,0,0,0,0,0,0,0,0,0,0,0,0,0,0,0],"sum_hessian":[1.15E2,1.14E2,1E0,1.09E2,5E0,9.2E1,1.7E1,1E0,4E0,8.1E1,1.1E1,9E0,8E0,1E0,3E0,7E1,1.1E1,7E0,4E0,6.8E1,2E0,1E0,1E1,3E0,4E0],"tree_param":{"num_deleted":"0","num_feature":"15","num_nodes":"25","size_leaf_vector":"1"}},{"base_weights":[6.0939457E-4,1.7201253E-4,7.6362495E-3,-8.064075E-5,4.7753206E-3,-2.3315182E-4,7.1181316E-4,2.6968673E-3,6.403685E-4,-2.512412E-4,-1.418716E-4,7.5085714E-5,3.1680198E-4,-9.936601E-5,-5.377237E-4,2.031002E-5,-1.5708197E-4],"categories":[],"categories_nodes":[],"categories_segments":[],"categories_sizes":[],"default_left":[0,0,0,0,0,0,0,0,0,0,0,0,0,0,0,0,0],"id":17,"left_children":[1,3,-1,5,7,9,11,-1,-1,-1,13,-1,-1,15,-1,-1,-1],"loss_changes":[1.2561536E-3,1.3413478E-4,0E0,1.3460341E-5,4.7583948E-5,5.0112853E-6,2.5950812E-6,0E0,0E0,0E0,5.574786E-6,0E0,0E0,5.776421E-6,0E0,0E0,0E0],"parents":[2147483647,0,0,1,1,3,3,4,4,5,5,6,6,10,10,13,13],"right_children":[2,4,-1,6,8,10,12,-1,-1,-1,14,-1,-1,16,-1,-1,-1],"split_conditions":[1E0,5.057545E-1,7.6362495E-3,6.2207766E-2,5.569054E-1,1.6623896E-3,1.04E3,2.6968673E-3,6.403685E-4,-2.512412E-4,1E0,7.5085714E-5,3.1680198E-4,4.5676548E-2,-5.377237E-4,2.031002E-5,-1.5708197E-4],"split_indices":[0,0,0,5,0,7,10,0,0,0,1,0,0,6,0,0,0],"split_type":[0,0,0,0,0,0,0,0,0,0,0,0,0,0,0,0,0],"sum_hessian":[1.15E2,1.14E2,1E0,1.09E2,5E0,9.2E1,1.7E1,1E0,4E0,1.1E1,8.1E1,8E0,9E0,8E1,1E0,5.8E1,2.2E1],"tree_param":{"num_deleted":"0","num_feature":"15","num_nodes":"17","size_leaf_vector":"1"}},{"base_weights":[5.1657256E-4,1.4478558E-4,6.490812E-3,-6.130156E-5,3.8989186E-3,-1.9266127E-4,5.3945027E-4,2.2923367E-3,1.6222537E-3,-3.8790674E-4,3.4308214E-5,3.3730996E-4,2.6952042E-4,6.245077E-5,5.7711976E-4,-1.4557804E-4,-1.1229553E-3,7.4599445E-4,-2.3364625E-4,-2.1947735E-5,2.908534E-4,-9.7924014E-5,2.105684E-4,-4.2919195E-4,8.309334E-5,7.649667E-6,6.5418327E-4,-2.3653165E-4,5.623363E-5],"categories":[],"categories_nodes":[],"categories_segments":[],"categories_sizes":[],"default_left":[0,0,0,0,0,0,0,0,0,0,0,0,0,0,0,0,0,0,0,0,0,0,0,0,0,0,0,0,0],"id":18,"left_children":[1,3,-1,5,7,9,11,-1,13,15,17,-1,19,-1,-1,21,23,25,27,-1,-1,-1,-1,-1,-1,-1,-1,-1,-1],"loss_changes":[9.076928E-4,8.921204E-5,0E0,8.7845365E-6,3.8722617E-5,4.0459518E-6,2.854687E-6,0E0,1.7311204E-6,8.564568E-6,8.374377E-6,0E0,3.6690162E-6,0E0,0E0,6.0527223E-6,5.565106E-6,1.2348013E-5,7.623582E-6,0E0,0E0,0E0,0E0,0E0,0E0,0E0,0E0,0E0,0E0],"parents":[2147483647,0,0,1,1,3,3,4,4,5,5,6,6,8,8,9,9,10,10,12,12,15,15,16,16,17,17,18,18],"right_children":[2,4,-1,6,8,10,12,-1,14,16,18,-1,20,-1,-1,22,24,26,28,-1,-1,-1,-1,-1,-1,-1,-1,-1,-1],"split_conditions":[1E0,5.057545E-1,6.490812E-3,3.6E1,5.569054E-1,2.566804E-2,1.394E4,2.2923367E-3,3.885E4,1.6093686E-2,3.777302E-2,3.3730996E-4,3.271526E-1,6.245077E-5,5.7711976E-4,1.0721816E-2,5.1356483E-2,3.7269697E-2,1.4194884E-2,-2.1947735E-5,2.908534E-4,-9.7924014E-5,2.105684E-4,-4.2919195E-4,8.309334E-5,7.649667E-6,6.5418327E-4,-2.3653165E-4,5.623363E-5],"split_indices":[0,0,0,8,0,7,9,0,13,7,7,0,0,0,0,7,3,2,4,0,0,0,0,0,0,0,0,0,0],"split_type":[0,0,0,0,0,0,0,0,0,0,0,0,0,0,0,0,0,0,0,0,0,0,0,0,0,0,0,0,0],"sum_hessian":[1.15E2,1.14E2,1E0,1.09E2,5E0,9E1,1.9E1,1E0,4E0,4.8E1,4.2E1,5E0,1.4E1,1E0,3E0,3.7E1,1.1E1,1.1E1,3.1E1,1E1,4E0,3.1E1,6E0,9E0,2E0,8E0,3E0,1.3E1,1.8E1],"tree_param":{"num_deleted":"0","num_feature":"15","num_nodes":"29","size_leaf_vector":"1"}},{"base_weights":[4.501957E-4,1.3427348E-4,5.517188E-3,-4.964792E-5,2.9790103E-3,-1.5289597E-4,3.0338138E-4,1.9484863E-3,1.3105273E-3,-7.426699E-5,-1.0184379E-3,4.5237356E-4,1.3307823E-4,7.2041155E-5,5.3570647E-4,-2.1476642E-4,4.5077602E-4,-6.156698E-4,8.098986E-5,-2.952736E-4,8.5907646E-5,-4.2393218E-5,-3.7887308E-4,2.3731783E-4,-2.5587296E-4],"categories":[],"categories_nodes":[],"categories_segments":[],"categories_sizes":[],"default_left":[0,0,0,0,0,0,0,0,0,0,0,0,0,0,0,0,0,0,0,0,0,0,0,0,0],"id":19,"left_children":[1,3,-1,5,7,9,11,-1,13,15,17,-1,19,-1,-1,21,23,-1,-1,-1,-1,-1,-1,-1,-1],"loss_changes":[6.549932E-4,6.0316823E-5,0E0,4.019391E-6,3.2552234E-5,5.709182E-6,4.9277132E-6,0E0,2.6228345E-6,5.9245026E-6,9.877653E-6,0E0,4.2209194E-6,0E0,0E0,4.6720415E-6,8.216288E-6,0E0,0E0,0E0,0E0,0E0,0E0,0E0,0E0],"parents":[2147483647,0,0,1,1,3,3,4,4,5,5,6,6,8,8,9,9,10,10,12,12,15,15,16,16],"right_children":[2,4,-1,6,8,10,12,-1,14,16,18,-1,20,-1,-1,22,24,-1,-1,-1,-1,-1,-1,-1,-1],"split_conditions":[1E0,4.2257228E-1,5.517188E-3,6.990622E-2,4.4243124E-1,6.83415E-2,7.182438E-2,1.9484863E-3,3.7190965E-1,3.8207423E-2,7.2869614E-2,4.5237356E-4,5.7689946E-2,7.2041155E-5,5.3570647E-4,3.5853036E-2,1.1007009E-2,-6.156698E-4,8.098986E-5,-2.952736E-4,8.5907646E-5,-4.2393218E-5,-3.7887308E-4,2.3731783E-4,-2.5587296E-4],"split_indices":[0,7,0,0,7,2,0,0,0,2,3,0,2,0,0,2,1,0,0,0,0,0,0,0,0],"split_type":[0,0,0,0,0,0,0,0,0,0,0,0,0,0,0,0,0,0,0,0,0,0,0,0,0],"sum_hessian":[1.15E2,1.14E2,1E0,1.08E2,6E0,8.4E1,2.4E1,1E0,5E0,7.8E1,6E0,2E0,2.2E1,2E0,3E0,6.2E1,1.6E1,3E0,3E0,2E0,2E1,5.9E1,3E0,1.3E1,3E0],"tree_param":{"num_deleted":"0","num_feature":"15","num_nodes":"25","size_leaf_vector":"1"}},{"base_weights":[3.7842925E-4,1.0985848E-4,4.68961E-3,-3.1654E-5,2.6859443E-3,-3.7449464E-4,5.831178E-5,1.6562149E-3,3.04454E-4,-2.1782255E-4,-2.3462853E-4,5.454294E-4,-4.1216277E-5,-1.6548038E-4,3.1308162E-5,8.651817E-4,-1.6505543E-4,-8.052322E-4,1.1964539E-4,-8.3242405E-5,3.3643816E-4,-3.0544034E-4,-2.150056E-5,3.208088E-4,-3.6173898E-7],"categories":[],"categories_nodes":[],"categories_segments":[],"categories_sizes":[],"default_left":[0,0,0,0,0,0,0,0,0,0,0,0,0,0,0,0,0,0,0,0,0,0,0,0,0],"id":20,"left_children":[1,3,-1,5,7,9,11,-1,-1,13,-1,15,17,-1,-1,19,-1,21,23,-1,-1,-1,-1,-1,-1],"loss_changes":[4.7349665E-4,4.2008072E-5,0E0,3.414669E-6,2.2820408E-5,1.298413E-6,4.288885E-6,0E0,0E0,1.9932468E-6,0E0,5.730887E-6,9.191008E-6,0E0,0E0,3.8252383E-6,0E0,1.9573372E-6,7.1173063E-6,0E0,0E0,0E0,0E0,0E0,0E0],"parents":[2147483647,0,0,1,1,3,3,4,4,5,5,6,6,9,9,11,11,12,12,15,15,17,17,18,18],"right_children":[2,4,-1,6,8,10,12,-1,-1,14,-1,16,18,-1,-1,20,-1,22,24,-1,-1,-1,-1,-1,-1],"split_conditions":[1E0,5.057545E-1,4.68961E-3,5.349945E-3,5.569054E-1,5.4889205E-3,1.7468128E-2,1.6562149E-3,3.04454E-4,9.6474413E-4,-2.3462853E-4,6.3E2,2.0460358E-2,-1.6548038E-4,3.1308162E-5,5.7544755E-3,-1.6505543E-4,4.0580045E-2,3.8444477E-3,-8.3242405E-5,3.3643816E-4,-3.0544034E-4,-2.150056E-5,3.208088E-4,-3.6173898E-7],"split_indices":[0,0,0,7,0,5,2,0,0,7,0,11,0,0,0,0,0,3,4,0,0,0,0,0,0],"split_type":[0,0,0,0,0,0,0,0,0,0,0,0,0,0,0,0,0,0,0,0,0,0,0,0,0],"sum_hessian":[1.15E2,1.14E2,1E0,1.09E2,5E0,2.2E1,8.7E1,1E0,4E0,1.7E1,5E0,1.4E1,7.3E1,8E0,9E0,1.1E1,3E0,1.2E1,6.1E1,2E0,9E0,9E0,3E0,6E0,5.5E1],"tree_param":{"num_deleted":"0","num_feature":"15","num_nodes":"25","size_leaf_vector":"1"}},{"base_weights":[3.1975433E-4,9.145277E-5,3.986165E-3,-4.0112485E-5,2.1270472E-3,-1.6832617E-5,-3.831508E-4,1.4077843E-3,9.1735023E-4,-1.9597574E-4,1.5301413E-4,-1.2110174E-5,3.3509015E-4,3.419429E-5,-5.2186055E-4,6.320834E-4,-2.1725227E-5,-7.557671E-5,1.5961469E-4,-1.9667934E-4,7.3156974E-5,3.2188935E-4,-7.5184075E-6,-1.4612466E-4,4.7734127E-5],"categories":[],"categories_nodes":[],"categories_segments":[],"categories_sizes":[],"default_left":[0,0,0,0,0,0,0,0,0,0,0,0,0,0,0,0,0,0,0,0,0,0,0,0,0],"id":21,"left_children":[1,3,-1,5,7,9,-1,-1,11,13,15,-1,-1,17,19,21,23,-1,-1,-1,-1,-1,-1,-1,-1],"loss_changes":[3.422019E-4,3.088387E-5,0E0,3.1175407E-6,1.7420138E-5,3.31609E-6,0E0,0E0,1.1921488E-6,3.9933175E-6,4.7016188E-6,0E0,0E0,4.6922587E-6,2.4127798E-6,4.3727305E-6,3.611998E-6,0E0,0E0,0E0,0E0,0E0,0E0,0E0,0E0],"parents":[2147483647,0,0,1,1,3,3,4,4,5,5,8,8,9,9,10,10,13,13,14,14,15,15,16,16],"right_children":[2,4,-1,6,8,10,-1,-1,12,14,16,-1,-1,18,20,22,24,-1,-1,-1,-1,-1,-1,-1,-1],"split_conditions":[1E0,4.2257228E-1,3.986165E-3,1E0,4.4243124E-1,2.566804E-2,-3.831508E-4,1.4077843E-3,3.271526E-1,1.0164668E-2,3.955451E-2,-1.2110174E-5,3.3509015E-4,5.349945E-3,5.1356483E-2,1.2E1,1.4194884E-2,-7.557671E-5,1.5961469E-4,-1.9667934E-4,7.3156974E-5,3.2188935E-4,-7.5184075E-6,-1.4612466E-4,4.7734127E-5],"split_indices":[0,7,0,1,7,7,0,0,0,5,7,0,0,7,3,8,4,0,0,0,0,0,0,0,0],"split_type":[0,0,0,0,0,0,0,0,0,0,0,0,0,0,0,0,0,0,0,0,0,0,0,0,0],"sum_hessian":[1.15E2,1.14E2,1E0,1.08E2,6E0,1.07E2,1E0,1E0,5E0,5.2E1,5.5E1,1E0,4E0,3.1E1,2.1E1,1.4E1,4.1E1,2E1,1.1E1,1.8E1,3E0,8E0,6E0,1.1E1,3E1],"tree_param":{"num_deleted":"0","num_feature":"15","num_nodes":"25","size_leaf_vector":"1"}},{"base_weights":[2.713295E-4,7.7269295E-5,3.3882381E-3,-2.9975217E-5,1.7361811E-3,-1.0149167E-5,-3.256783E-4,1.1966184E-3,2.0879062E-4,-1.5728909E-4,1.0579945E-4,-6.5607375E-5,-3.4481587E-4,7.7268656E-4,5.0421113E-6,-7.119104E-5,6.9343565E-5,-2.2915101E-5,3.2053218E-4,-1.1822645E-4,3.8538714E-5],"categories":[],"categories_nodes":[],"categories_segments":[],"categories_sizes":[],"default_left":[0,0,0,0,0,0,0,0,0,0,0,0,0,0,0,0,0,0,0,0,0],"id":22,"left_children":[1,3,-1,5,7,9,-1,-1,-1,11,13,15,-1,17,19,-1,-1,-1,-1,-1,-1],"loss_changes":[2.472613E-4,2.0511601E-5,0E0,2.2702166E-6,1.3625862E-5,1.8591936E-6,0E0,0E0,0E0,4.290536E-6,4.094924E-6,2.3476582E-6,0E0,2.090539E-6,2.7107067E-6,0E0,0E0,0E0,0E0,0E0,0E0],"parents":[2147483647,0,0,1,1,3,3,4,4,5,5,9,9,10,10,11,11,13,13,14,14],"right_children":[2,4,-1,6,8,10,-1,-1,-1,12,14,16,-1,18,20,-1,-1,-1,-1,-1,-1],"split_conditions":[1E0,4.2257228E-1,3.3882381E-3,1E0,4.4243124E-1,2.4881167E-2,-3.256783E-4,1.1966184E-3,2.0879062E-4,2.8257776E-2,3.8444477E-3,3.770516E-3,-3.4481587E-4,3.1479154E-2,3.641178E-2,-7.119104E-5,6.9343565E-5,-2.2915101E-5,3.2053218E-4,-1.1822645E-4,3.8538714E-5],"split_indices":[0,7,0,1,7,2,0,0,0,5,4,4,0,6,7,0,0,0,0,0,0],"split_type":[0,0,0,0,0,0,0,0,0,0,0,0,0,0,0,0,0,0,0,0,0],"sum_hessian":[1.15E2,1.14E2,1E0,1.08E2,6E0,1.07E2,1E0,1E0,5E0,4.7E1,6E1,4.4E1,3E0,7E0,5.3E1,2.8E1,1.6E1,2E0,5E0,1.2E1,4.1E1],"tree_param":{"num_deleted":"0","num_feature":"15","num_nodes":"21","size_leaf_vector":"1"}},{"base_weights":[2.2733778E-4,6.2357874E-5,2.8800042E-3,-2.00518E-5,1.562809E-3,-3.3044887E-6,-2.7682632E-4,1.017125E-3,1.5576124E-4,-4.6000023E-5,2.8970093E-4,4.1527303E-5,-3.605751E-4,2.7564616E-4,1.0378117E-5,-1.1016805E-5,2.8816928E-4,-2.2377295E-4,1.7261744E-5],"categories":[],"categories_nodes":[],"categories_segments":[],"categories_sizes":[],"default_left":[0,0,0,0,0,0,0,0,0,0,0,0,0,0,0,0,0,0,0],"id":23,"left_children":[1,3,-1,5,7,9,-1,-1,-1,11,13,15,17,-1,-1,-1,-1,-1,-1],"loss_changes":[1.7877253E-4,1.4251281E-5,0E0,1.6599133E-6,9.683482E-6,1.3769188E-6,0E0,0E0,0E0,2.6582297E-6,2.2151157E-6,5.5007863E-6,3.4263112E-6,0E0,0E0,0E0,0E0,0E0,0E0],"parents":[2147483647,0,0,1,1,3,3,4,4,5,5,9,9,10,10,11,11,12,12],"right_children":[2,4,-1,6,8,10,-1,-1,-1,12,14,16,18,-1,-1,-1,-1,-1,-1],"split_conditions":[1E0,5.057545E-1,2.8800042E-3,1E0,5.569054E-1,7.2E1,-2.7682632E-4,1.017125E-3,1.5576124E-4,2.3362413E-2,2.3375E4,1.4194884E-2,6.415175E-2,2.7564616E-4,1.0378117E-5,-1.1016805E-5,2.8816928E-4,-2.2377295E-4,1.7261744E-5],"split_indices":[0,0,0,1,0,8,0,0,0,4,13,4,0,0,0,0,0,0,0],"split_type":[0,0,0,0,0,0,0,0,0,0,0,0,0,0,0,0,0,0,0],"sum_hessian":[1.15E2,1.14E2,1E0,1.09E2,5E0,1.08E2,1E0,1E0,4E0,9.5E1,1.3E1,7.5E1,2E1,3E0,1E1,7E1,5E0,1E1,1E1],"tree_param":{"num_deleted":"0","num_feature":"15","num_nodes":"19","size_leaf_vector":"1"}},{"base_weights":[1.9476477E-4,5.4544897E-5,2.4480075E-3,-2.0919959E-5,1.2218484E-3,-1.9766474E-6,-2.3530239E-4,8.6455647E-4,1.3946147E-4],"categories":[],"categories_nodes":[],"categories_segments":[],"categories_sizes":[],"default_left":[0,0,0,0,0,0,0,0,0],"id":24,"left_children":[1,3,-1,5,7,-1,-1,-1,-1],"loss_changes":[1.2911389E-4,1.0155955E-5,0E0,1.1873677E-6,7.456414E-6,0E0,0E0,0E0,0E0],"parents":[2147483647,0,0,1,1,3,3,4,4],"right_children":[2,4,-1,6,8,-1,-1,-1,-1],"split_conditions":[1E0,4.2257228E-1,2.4480075E-3,1E0,4.4243124E-1,-1.9766474E-6,-2.3530239E-4,8.6455647E-4,1.3946147E-4],"split_indices":[0,7,0,1,7,0,0,0,0],"split_type":[0,0,0,0,0,0,0,0,0],"sum_hessian":[1.15E2,1.14E2,1E0,1.08E2,6E0,1.07E2,1E0,1E0,5E0],"tree_param":{"num_deleted":"0","num_feature":"15","num_nodes":"9","size_leaf_vector":"1"}},{"base_weights":[1.6404773E-4,4.48479E-5,2.0808042E-3,-2.4312823E-5,9.729117E-4,4.532831E-5,-1.5917359E-4,7.3487166E-4,1.2360641E-4,-7.2620765E-5,5.8622187E-4,-3.3001174E-4,-4.3801963E-5,-2.6882291E-5,-2.798073E-4,7.461885E-4,-2.0000675E-4,2.225401E-4,-9.008689E-5,1.866944E-5,-1.5569155E-4,3.025151E-4,5.323157E-5,-1.0198252E-4,1.508773E-5],"categories":[],"categories_nodes":[],"categories_segments":[],"categories_sizes":[],"default_left":[0,0,0,0,0,0,0,0,0,0,0,0,0,0,0,0,0,0,0,0,0,0,0,0,0],"id":25,"left_children":[1,3,-1,5,7,9,11,-1,-1,13,15,-1,17,19,-1,21,-1,-1,23,-1,-1,-1,-1,-1,-1],"loss_changes":[9.3326125E-5,7.404994E-6,0E0,1.0215356E-6,5.616681E-6,4.63602E-6,3.968136E-6,0E0,0E0,2.335225E-6,3.1029876E-6,0E0,1.3031189E-6,2.5757092E-6,0E0,1.6105564E-6,0E0,0E0,1.1745535E-6,0E0,0E0,0E0,0E0,0E0,0E0],"parents":[2147483647,0,0,1,1,3,3,4,4,5,5,6,6,9,9,10,10,12,12,13,13,15,15,18,18],"right_children":[2,4,-1,6,8,10,12,-1,-1,14,16,-1,18,20,-1,22,-1,-1,24,-1,-1,-1,-1,-1,-1],"split_conditions":[1E0,3.8666975E-1,2.0808042E-3,4.5676548E-2,1.575E3,3.8207423E-2,4.9628824E-2,7.3487166E-4,1.2360641E-4,2.3362413E-2,6.7846484E-2,-3.3001174E-4,5.0079543E-2,6.5E2,-2.798073E-4,5.1635735E-2,-2.0000675E-4,2.225401E-4,6.990622E-2,1.866944E-5,-1.5569155E-4,3.025151E-4,5.323157E-5,-1.0198252E-4,1.508773E-5],"split_indices":[0,6,0,6,11,2,3,0,0,4,1,0,3,11,0,7,0,0,0,0,0,0,0,0,0],"split_type":[0,0,0,0,0,0,0,0,0,0,0,0,0,0,0,0,0,0,0,0,0,0,0,0,0],"sum_hessian":[1.15E2,1.14E2,1E0,1.07E2,7E0,7.1E1,3.6E1,1E0,6E0,5.9E1,1.2E1,3E0,3.3E1,5.7E1,2E0,1.1E1,1E0,1E0,3.2E1,4.9E1,8E0,7E0,4E0,1.1E1,2.1E1],"tree_param":{"num_deleted":"0","num_feature":"15","num_nodes":"25","size_leaf_vector":"1"}},{"base_weights":[1.36245E-4,3.4897315E-5,1.7686845E-3,-6.37088E-6,7.883385E-4,6.246418E-4,9.18184E-5],"categories":[],"categories_nodes":[],"categories_segments":[],"categories_sizes":[],"default_left":[0,0,0,0,0,0,0],"id":26,"left_children":[1,3,-1,-1,5,-1,-1],"loss_changes":[6.7503315E-5,4.880477E-6,0E0,0E0,4.354502E-6,0E0,0E0],"parents":[2147483647,0,0,1,1,4,4],"right_children":[2,4,-1,-1,6,-1,-1],"split_conditions":[1E0,3.8666975E-1,1.7686845E-3,-6.37088E-6,1.575E3,6.246418E-4,9.18184E-5],"split_indices":[0,6,0,0,11,0,0],"split_type":[0,0,0,0,0,0,0],"sum_hessian":[1.15E2,1.14E2,1E0,1.07E2,7E0,1E0,6E0],"tree_param":{"num_deleted":"0","num_feature":"15","num_nodes":"7","size_leaf_vector":"1"}},{"base_weights":[1.1674135E-4,3.0604137E-5,1.5033783E-3,-3.9863194E-6,7.096912E-4,2.943635E-5,4.477233E-4],"categories":[],"categories_nodes":[],"categories_segments":[],"categories_sizes":[],"default_left":[0,0,0,0,0,0,0],"id":27,"left_children":[1,3,-1,-1,5,-1,-1],"loss_changes":[4.875226E-5,3.437166E-6,0E0,0E0,3.2043781E-6,0E0,0E0],"parents":[2147483647,0,0,1,1,4,4],"right_children":[2,4,-1,-1,6,-1,-1],"split_conditions":[1E0,4.2257228E-1,1.5033783E-3,-3.9863194E-6,4.6981093E-1,2.943635E-5,4.477233E-4],"split_indices":[0,7,0,0,5,0,0],"split_type":[0,0,0,0,0,0,0],"sum_hessian":[1.15E2,1.14E2,1E0,1.08E2,6E0,4E0,2E0],"tree_param":{"num_deleted":"0","num_feature":"15","num_nodes":"7","size_leaf_vector":"1"}},{"base_weights":[9.875822E-5,2.5537744E-5,1.277867E-3,-2.0404937E-5,4.617599E-4,3.9508952E-5,-2.3572876E-4,5.2855315E-4,-6.872416E-6,1.683141E-5,2.848601E-4,-3.9486785E-4,-2.3528562E-6,-8.036764E-5,1.4965207E-4,1.5217281E-5,-1.4336112E-4,-1.9715486E-4,6.553974E-5],"categories":[],"categories_nodes":[],"categories_segments":[],"categories_sizes":[],"default_left":[0,0,0,0,0,0,0,0,0,0,0,0,0,0,0,0,0,0,0],"id":28,"left_children":[1,3,-1,5,7,9,11,-1,-1,13,-1,-1,-1,15,17,-1,-1,-1,-1],"loss_changes":[3.5231275E-5,2.3141617E-6,0E0,1.3639066E-6,6.9715597E-6,1.6968992E-6,5.6529693E-6,0E0,0E0,1.0706506E-6,0E0,0E0,0E0,2.5254903E-6,2.0868176E-6,0E0,0E0,0E0,0E0],"parents":[2147483647,0,0,1,1,3,3,4,4,5,5,6,6,9,9,13,13,14,14],"right_children":[2,4,-1,6,8,10,12,-1,-1,14,-1,-1,-1,16,18,-1,-1,-1,-1],"split_conditions":[1E0,1.7361252E-1,1.277867E-3,6.6996306E-2,1.575E3,6.614518E-2,6.052125E-2,5.2855315E-4,-6.872416E-6,2.4881167E-2,2.848601E-4,-3.9486785E-4,-2.3528562E-6,2.9163243E-2,1.0721816E-2,1.5217281E-5,-1.4336112E-4,-1.9715486E-4,6.553974E-5],"split_indices":[0,5,0,2,11,2,7,0,0,2,0,0,0,3,7,0,0,0,0],"split_type":[0,0,0,0,0,0,0,0,0,0,0,0,0,0,0,0,0,0,0],"sum_hessian":[1.15E2,1.14E2,1E0,1.04E2,1E1,8.2E1,2.2E1,2E0,8E0,8.1E1,1E0,3E0,1.9E1,4.7E1,3.4E1,3.6E1,1.1E1,2E0,3.2E1],"tree_param":{"num_deleted":"0","num_feature":"15","num_nodes":"19","size_leaf_vector":"1"}},{"base_weights":[8.143671E-5,1.917747E-5,1.0861874E-3,-4.1559133E-6,4.6269223E-4,3.8450808E-4,4.877789E-5],"categories":[],"categories_nodes":[],"categories_segments":[],"categories_sizes":[],"default_left":[0,0,0,0,0,0,0],"id":29,"left_children":[1,3,-1,-1,5,-1,-1],"loss_changes":[2.5490832E-5,1.6911046E-6,0E0,0E0,1.7578594E-6,0E0,0E0],"parents":[2147483647,0,0,1,1,4,4],"right_children":[2,4,-1,-1,6,-1,-1],"split_conditions":[1E0,3.8666975E-1,1.0861874E-3,-4.1559133E-6,1.575E3,3.8450808E-4,4.877789E-5],"split_indices":[0,6,0,0,11,0,0],"split_type":[0,0,0,0,0,0,0],"sum_hessian":[1.15E2,1.14E2,1E0,1.07E2,7E0,1E0,6E0],"tree_param":{"num_deleted":"0","num_feature":"15","num_nodes":"7","size_leaf_vector":"1"}},{"base_weights":[7.006905E-5,1.7155968E-5,9.232611E-4,-3.1338426E-5,2.4907125E-4,1.5870562E-5,-2.87325E-4,6.416408E-4,-3.5007986E-6,6.753176E-5,-2.9111406E-4,-2.6005917E-4,-3.9445003E-5,6.425253E-5,3.8480762E-4,-1.4748125E-4,1.6707803E-4,-3.0508675E-4,1.9148489E-5,5.6483022E-6,-1.3849919E-4,6.849437E-5,-1.2523994E-4],"categories":[],"categories_nodes":[],"categories_segments":[],"categories_sizes":[],"default_left":[0,0,0,0,0,0,0,0,0,0,0,0,0,0,0,0,0,0,0,0,0,0,0],"id":30,"left_children":[1,3,-1,5,7,9,11,13,-1,15,17,-1,-1,-1,-1,19,21,-1,-1,-1,-1,-1,-1],"loss_changes":[1.8406792E-5,1.3011635E-6,0E0,1.1647072E-6,2.054664E-6,1.3201131E-6,1.2407663E-6,1.9174984E-6,0E0,1.5443067E-6,3.1564941E-6,0E0,0E0,0E0,0E0,1.2104739E-6,1.8492923E-6,0E0,0E0,0E0,0E0,0E0,0E0],"parents":[2147483647,0,0,1,1,3,3,4,4,5,5,6,6,7,7,9,9,10,10,15,15,16,16],"right_children":[2,4,-1,6,8,10,12,14,-1,16,18,-1,-1,-1,-1,20,22,-1,-1,-1,-1,-1,-1],"split_conditions":[1E0,1.32E3,9.232611E-4,4.2E2,2.115E3,6.6996306E-2,2.1312874E-2,1.2617221E-1,-3.5007986E-6,8.31202E-3,6.052125E-2,-2.6005917E-4,-3.9445003E-5,6.425253E-5,3.8480762E-4,1.8482922E-3,5.4685913E-2,-3.0508675E-4,1.9148489E-5,5.6483022E-6,-1.3849919E-4,6.849437E-5,-1.2523994E-4],"split_indices":[0,10,0,10,11,2,0,0,0,0,7,0,0,0,0,4,5,0,0,0,0,0,0],"split_type":[0,0,0,0,0,0,0,0,0,0,0,0,0,0,0,0,0,0,0,0,0,0,0],"sum_hessian":[1.15E2,1.14E2,1E0,9.5E1,1.9E1,8.1E1,1.4E1,7E0,1.2E1,7E1,1.1E1,2E0,1.2E1,5E0,2E0,2.2E1,4.8E1,3E0,8E0,1.5E1,7E0,4.4E1,4E0],"tree_param":{"num_deleted":"0","num_feature":"15","num_nodes":"23","size_leaf_vector":"1"}},{"base_weights":[5.4166587E-5,2.7431122E-6,7.847697E-4],"categories":[],"categories_nodes":[],"categories_segments":[],"categories_sizes":[],"default_left":[0,0,0],"id":31,"left_children":[1,-1,-1],"loss_changes":[1.3355122E-5,0E0,0E0],"parents":[2147483647,0,0],"right_children":[2,-1,-1],"split_conditions":[1E0,2.7431122E-6,7.847697E-4],"split_indices":[0,0,0],"split_type":[0,0,0],"sum_hessian":[1.15E2,1.14E2,1E0],"tree_param":{"num_deleted":"0","num_feature":"15","num_nodes":"3","size_leaf_vector":"1"}},{"base_weights":[4.4706296E-5,1.927532E-6,6.670565E-4],"categories":[],"categories_nodes":[],"categories_segments":[],"categories_sizes":[],"default_left":[0,0,0],"id":32,"left_children":[1,-1,-1],"loss_changes":[9.660999E-6,0E0,0E0],"parents":[2147483647,0,0],"right_children":[2,-1,-1],"split_conditions":[1E0,1.927532E-6,6.670565E-4],"split_indices":[0,0,0],"split_type":[0,0,0],"sum_hessian":[1.15E2,1.14E2,1E0],"tree_param":{"num_deleted":"0","num_feature":"15","num_nodes":"3","size_leaf_vector":"1"}},{"base_weights":[3.706186E-5,1.3543524E-6,5.670011E-4],"categories":[],"categories_nodes":[],"categories_segments":[],"categories_sizes":[],"default_left":[0,0,0],"id":33,"left_children":[1,-1,-1],"loss_changes":[6.9872362E-6,0E0,0E0],"parents":[2147483647,0,0],"right_children":[2,-1,-1],"split_conditions":[1E0,1.3543524E-6,5.670011E-4],"split_indices":[0,0,0],"split_type":[0,0,0],"sum_hessian":[1.15E2,1.14E2,1E0],"tree_param":{"num_deleted":"0","num_feature":"15","num_nodes":"3","size_leaf_vector":"1"}},{"base_weights":[3.0842864E-5,9.5160993E-7,4.819483E-4],"categories":[],"categories_nodes":[],"categories_segments":[],"categories_sizes":[],"default_left":[0,0,0],"id":34,"left_children":[1,-1,-1],"loss_changes":[5.052456E-6,0E0,0E0],"parents":[2147483647,0,0],"right_children":[2,-1,-1],"split_conditions":[1E0,9.5160993E-7,4.819483E-4],"split_indices":[0,0,0],"split_type":[0,0,0],"sum_hessian":[1.15E2,1.14E2,1E0],"tree_param":{"num_deleted":"0","num_feature":"15","num_nodes":"3","size_leaf_vector":"1"}},{"base_weights":[2.5752583E-5,6.685417E-7,4.096538E-4],"categories":[],"categories_nodes":[],"categories_segments":[],"categories_sizes":[],"default_left":[0,0,0],"id":35,"left_children":[1,-1,-1],"loss_changes":[3.6528897E-6,0E0,0E0],"parents":[2147483647,0,0],"right_children":[2,-1,-1],"split_conditions":[1E0,6.685417E-7,4.096538E-4],"split_indices":[0,0,0],"split_type":[0,0,0],"sum_hessian":[1.15E2,1.14E2,1E0],"tree_param":{"num_deleted":"0","num_feature":"15","num_nodes":"3","size_leaf_vector":"1"}},{"base_weights":[2.1565487E-5,-6.5393697E-6,6.096959E-4,1.955688E-5,3.4137146E-4],"categories":[],"categories_nodes":[],"categories_segments":[],"categories_sizes":[],"default_left":[0,0,0,0,0],"id":36,"left_children":[1,-1,3,-1,-1],"loss_changes":[2.971676E-6,0E0,2.2267252E-6,0E0,0E0],"parents":[2147483647,0,0,2,2],"right_children":[2,-1,4,-1,-1],"split_conditions":[4.2257228E-1,-6.5393697E-6,4.6981093E-1,1.955688E-5,3.4137146E-4],"split_indices":[7,0,5,0,0],"split_type":[0,0,0,0,0],"sum_hessian":[1.15E2,1.08E2,7E0,4E0,3E0],"tree_param":{"num_deleted":"0","num_feature":"15","num_nodes":"5","size_leaf_vector":"1"}},{"base_weights":[1.8150875E-5,3.2737793E-7,2.97001E-4],"categories":[],"categories_nodes":[],"categories_segments":[],"categories_sizes":[],"default_left":[0,0,0],"id":37,"left_children":[1,-1,-1],"loss_changes":[1.9221334E-6,0E0,0E0],"parents":[2147483647,0,0],"right_children":[2,-1,-1],"split_conditions":[1E0,3.2737793E-7,2.97001E-4],"split_indices":[0,0,0],"split_type":[0,0,0],"sum_hessian":[1.15E2,1.14E2,1E0],"tree_param":{"num_deleted":"0","num_feature":"15","num_nodes":"3","size_leaf_vector":"1"}},{"base_weights":[1.526913E-5,-4.693025E-6,4.3454394E-4,-5.7002904E-5,2.0231903E-4],"categories":[],"categories_nodes":[],"categories_segments":[],"categories_sizes":[],"default_left":[0,0,0,0,0],"id":38,"left_children":[1,-1,3,-1,-1],"loss_changes":[1.5102567E-6,0E0,1.3265494E-6,0E0,0E0],"parents":[2147483647,0,0,2,2],"right_children":[2,-1,4,-1,-1],"split_conditions":[4.2257228E-1,-4.693025E-6,3.7190965E-1,-5.7002904E-5,2.0231903E-4],"split_indices":[7,0,0,0,0],"split_type":[0,0,0,0,0],"sum_hessian":[1.15E2,1.08E2,7E0,2E0,5E0],"tree_param":{"num_deleted":"0","num_feature":"15","num_nodes":"5","size_leaf_vector":"1"}},{"base_weights":[1.1901046E-5,-2.613322E-7,2.2210479E-4],"categories":[],"categories_nodes":[],"categories_segments":[],"categories_sizes":[],"default_left":[0,0,0],"id":39,"left_children":[1,-1,-1],"loss_changes":[1.0798918E-6,0E0,0E0],"parents":[2147483647,0,0],"right_children":[2,-1,-1],"split_conditions":[1E0,-2.613322E-7,2.2210479E-4],"split_indices":[0,0,0],"split_type":[0,0,0],"sum_hessian":[1.15E2,1.14E2,1E0],"tree_param":{"num_deleted":"0","num_feature":"15","num_nodes":"3","size_leaf_vector":"1"}},{"base_weights":[1.0243582E-5],"categories":[],"categories_nodes":[],"categories_segments":[],"categories_sizes":[],"default_left":[0],"id":40,"left_children":[-1],"loss_changes":[0E0],"parents":[2147483647],"right_children":[-1],"split_conditions":[3.0730748E-6],"split_indices":[0],"split_type":[0],"sum_hessian":[1.15E2],"tree_param":{"num_deleted":"0","num_feature":"15","num_nodes":"1","size_leaf_vector":"1"}},{"base_weights":[7.1968107E-6],"categories":[],"categories_nodes":[],"categories_segments":[],"categories_sizes":[],"default_left":[0],"id":41,"left_children":[-1],"loss_changes":[0E0],"parents":[2147483647],"right_children":[-1],"split_conditions":[2.1590433E-6],"split_indices":[0],"split_type":[0],"sum_hessian":[1.15E2],"tree_param":{"num_deleted":"0","num_feature":"15","num_nodes":"1","size_leaf_vector":"1"}},{"base_weights":[5.0573562E-6],"categories":[],"categories_nodes":[],"categories_segments":[],"categories_sizes":[],"default_left":[0],"id":42,"left_children":[-1],"loss_changes":[0E0],"parents":[2147483647],"right_children":[-1],"split_conditions":[1.5172069E-6],"split_indices":[0],"split_type":[0],"sum_hessian":[1.15E2],"tree_param":{"num_deleted":"0","num_feature":"15","num_nodes":"1","size_leaf_vector":"1"}},{"base_weights":[3.5536477E-6],"categories":[],"categories_nodes":[],"categories_segments":[],"categories_sizes":[],"default_left":[0],"id":43,"left_children":[-1],"loss_changes":[0E0],"parents":[2147483647],"right_children":[-1],"split_conditions":[1.0660943E-6],"split_indices":[0],"split_type":[0],"sum_hessian":[1.15E2],"tree_param":{"num_deleted":"0","num_feature":"15","num_nodes":"1","size_leaf_vector":"1"}},{"base_weights":[2.4957467E-6],"categories":[],"categories_nodes":[],"categories_segments":[],"categories_sizes":[],"default_left":[0],"id":44,"left_children":[-1],"loss_changes":[0E0],"parents":[2147483647],"right_children":[-1],"split_conditions":[7.4872406E-7],"split_indices":[0],"split_type":[0],"sum_hessian":[1.15E2],"tree_param":{"num_deleted":"0","num_feature":"15","num_nodes":"1","size_leaf_vector":"1"}},{"base_weights":[1.7534582E-6],"categories":[],"categories_nodes":[],"categories_segments":[],"categories_sizes":[],"default_left":[0],"id":45,"left_children":[-1],"loss_changes":[0E0],"parents":[2147483647],"right_children":[-1],"split_conditions":[5.2603747E-7],"split_indices":[0],"split_type":[0],"sum_hessian":[1.15E2],"tree_param":{"num_deleted":"0","num_feature":"15","num_nodes":"1","size_leaf_vector":"1"}},{"base_weights":[1.2309885E-6],"categories":[],"categories_nodes":[],"categories_segments":[],"categories_sizes":[],"default_left":[0],"id":46,"left_children":[-1],"loss_changes":[0E0],"parents":[2147483647],"right_children":[-1],"split_conditions":[3.6929654E-7],"split_indices":[0],"split_type":[0],"sum_hessian":[1.15E2],"tree_param":{"num_deleted":"0","num_feature":"15","num_nodes":"1","size_leaf_vector":"1"}},{"base_weights":[8.658856E-7],"categories":[],"categories_nodes":[],"categories_segments":[],"categories_sizes":[],"default_left":[0],"id":47,"left_children":[-1],"loss_changes":[0E0],"parents":[2147483647],"right_children":[-1],"split_conditions":[2.597657E-7],"split_indices":[0],"split_type":[0],"sum_hessian":[1.15E2],"tree_param":{"num_deleted":"0","num_feature":"15","num_nodes":"1","size_leaf_vector":"1"}},{"base_weights":[6.0855933E-7],"categories":[],"categories_nodes":[],"categories_segments":[],"categories_sizes":[],"default_left":[0],"id":48,"left_children":[-1],"loss_changes":[0E0],"parents":[2147483647],"right_children":[-1],"split_conditions":[1.825678E-7],"split_indices":[0],"split_type":[0],"sum_hessian":[1.15E2],"tree_param":{"num_deleted":"0","num_feature":"15","num_nodes":"1","size_leaf_vector":"1"}},{"base_weights":[4.2794673E-7],"categories":[],"categories_nodes":[],"categories_segments":[],"categories_sizes":[],"default_left":[0],"id":49,"left_children":[-1],"loss_changes":[0E0],"parents":[2147483647],"right_children":[-1],"split_conditions":[1.2838403E-7],"split_indices":[0],"split_type":[0],"sum_hessian":[1.15E2],"tree_param":{"num_deleted":"0","num_feature":"15","num_nodes":"1","size_leaf_vector":"1"}},{"base_weights":[3.019284E-7],"categories":[],"categories_nodes":[],"categories_segments":[],"categories_sizes":[],"default_left":[0],"id":50,"left_children":[-1],"loss_changes":[0E0],"parents":[2147483647],"right_children":[-1],"split_conditions":[9.0578524E-8],"split_indices":[0],"split_type":[0],"sum_hessian":[1.15E2],"tree_param":{"num_deleted":"0","num_feature":"15","num_nodes":"1","size_leaf_vector":"1"}},{"base_weights":[2.1165636E-7],"categories":[],"categories_nodes":[],"categories_segments":[],"categories_sizes":[],"default_left":[0],"id":51,"left_children":[-1],"loss_changes":[0E0],"parents":[2147483647],"right_children":[-1],"split_conditions":[6.349691E-8],"split_indices":[0],"split_type":[0],"sum_hessian":[1.15E2],"tree_param":{"num_deleted":"0","num_feature":"15","num_nodes":"1","size_leaf_vector":"1"}},{"base_weights":[1.4920705E-7],"categories":[],"categories_nodes":[],"categories_segments":[],"categories_sizes":[],"default_left":[0],"id":52,"left_children":[-1],"loss_changes":[0E0],"parents":[2147483647],"right_children":[-1],"split_conditions":[4.4762118E-8],"split_indices":[0],"split_type":[0],"sum_hessian":[1.15E2],"tree_param":{"num_deleted":"0","num_feature":"15","num_nodes":"1","size_leaf_vector":"1"}},{"base_weights":[1.0308301E-7],"categories":[],"categories_nodes":[],"categories_segments":[],"categories_sizes":[],"default_left":[0],"id":53,"left_children":[-1],"loss_changes":[0E0],"parents":[2147483647],"right_children":[-1],"split_conditions":[3.0924905E-8],"split_indices":[0],"split_type":[0],"sum_hessian":[1.15E2],"tree_param":{"num_deleted":"0","num_feature":"15","num_nodes":"1","size_leaf_vector":"1"}},{"base_weights":[7.194116E-8],"categories":[],"categories_nodes":[],"categories_segments":[],"categories_sizes":[],"default_left":[0],"id":54,"left_children":[-1],"loss_changes":[0E0],"parents":[2147483647],"right_children":[-1],"split_conditions":[2.1582348E-8],"split_indices":[0],"split_type":[0],"sum_hessian":[1.15E2],"tree_param":{"num_deleted":"0","num_feature":"15","num_nodes":"1","size_leaf_vector":"1"}},{"base_weights":[5.0710916E-8],"categories":[],"categories_nodes":[],"categories_segments":[],"categories_sizes":[],"default_left":[0],"id":55,"left_children":[-1],"loss_changes":[0E0],"parents":[2147483647],"right_children":[-1],"split_conditions":[1.5213276E-8],"split_indices":[0],"split_type":[0],"sum_hessian":[1.15E2],"tree_param":{"num_deleted":"0","num_feature":"15","num_nodes":"1","size_leaf_vector":"1"}},{"base_weights":[3.5097464E-8],"categories":[],"categories_nodes":[],"categories_segments":[],"categories_sizes":[],"default_left":[0],"id":56,"left_children":[-1],"loss_changes":[0E0],"parents":[2147483647],"right_children":[-1],"split_conditions":[1.052924E-8],"split_indices":[0],"split_type":[0],"sum_hessian":[1.15E2],"tree_param":{"num_deleted":"0","num_feature":"15","num_nodes":"1","size_leaf_vector":"1"}},{"base_weights":[2.5702446E-8],"categories":[],"categories_nodes":[],"categories_segments":[],"categories_sizes":[],"default_left":[0],"id":57,"left_children":[-1],"loss_changes":[0E0],"parents":[2147483647],"right_children":[-1],"split_conditions":[7.710734E-9],"split_indices":[0],"split_type":[0],"sum_hessian":[1.15E2],"tree_param":{"num_deleted":"0","num_feature":"15","num_nodes":"1","size_leaf_vector":"1"}},{"base_weights":[1.8638996E-8],"categories":[],"categories_nodes":[],"categories_segments":[],"categories_sizes":[],"default_left":[0],"id":58,"left_children":[-1],"loss_changes":[0E0],"parents":[2147483647],"right_children":[-1],"split_conditions":[5.591699E-9],"split_indices":[0],"split_type":[0],"sum_hessian":[1.15E2],"tree_param":{"num_deleted":"0","num_feature":"15","num_nodes":"1","size_leaf_vector":"1"}},{"base_weights":[1.3516722E-8],"categories":[],"categories_nodes":[],"categories_segments":[],"categories_sizes":[],"default_left":[0],"id":59,"left_children":[-1],"loss_changes":[0E0],"parents":[2147483647],"right_children":[-1],"split_conditions":[4.0550168E-9],"split_indices":[0],"split_type":[0],"sum_hessian":[1.15E2],"tree_param":{"num_deleted":"0","num_feature":"15","num_nodes":"1","size_leaf_vector":"1"}},{"base_weights":[1.0103796E-8],"categories":[],"categories_nodes":[],"categories_segments":[],"categories_sizes":[],"default_left":[0],"id":60,"left_children":[-1],"loss_changes":[0E0],"parents":[2147483647],"right_children":[-1],"split_conditions":[3.031139E-9],"split_indices":[0],"split_type":[0],"sum_hessian":[1.15E2],"tree_param":{"num_deleted":"0","num_feature":"15","num_nodes":"1","size_leaf_vector":"1"}},{"base_weights":[7.713267E-9],"categories":[],"categories_nodes":[],"categories_segments":[],"categories_sizes":[],"default_left":[0],"id":61,"left_children":[-1],"loss_changes":[0E0],"parents":[2147483647],"right_children":[-1],"split_conditions":[2.3139803E-9],"split_indices":[0],"split_type":[0],"sum_hessian":[1.15E2],"tree_param":{"num_deleted":"0","num_feature":"15","num_nodes":"1","size_leaf_vector":"1"}},{"base_weights":[5.842594E-9],"categories":[],"categories_nodes":[],"categories_segments":[],"categories_sizes":[],"default_left":[0],"id":62,"left_children":[-1],"loss_changes":[0E0],"parents":[2147483647],"right_children":[-1],"split_conditions":[1.7527783E-9],"split_indices":[0],"split_type":[0],"sum_hessian":[1.15E2],"tree_param":{"num_deleted":"0","num_feature":"15","num_nodes":"1","size_leaf_vector":"1"}},{"base_weights":[5.002597E-9],"categories":[],"categories_nodes":[],"categories_segments":[],"categories_sizes":[],"default_left":[0],"id":63,"left_children":[-1],"loss_changes":[0E0],"parents":[2147483647],"right_children":[-1],"split_conditions":[1.5007792E-9],"split_indices":[0],"split_type":[0],"sum_hessian":[1.15E2],"tree_param":{"num_deleted":"0","num_feature":"15","num_nodes":"1","size_leaf_vector":"1"}},{"base_weights":[4.228837E-9],"categories":[],"categories_nodes":[],"categories_segments":[],"categories_sizes":[],"default_left":[0],"id":64,"left_children":[-1],"loss_changes":[0E0],"parents":[2147483647],"right_children":[-1],"split_conditions":[1.2686511E-9],"split_indices":[0],"split_type":[0],"sum_hessian":[1.15E2],"tree_param":{"num_deleted":"0","num_feature":"15","num_nodes":"1","size_leaf_vector":"1"}},{"base_weights":[3.6096277E-9],"categories":[],"categories_nodes":[],"categories_segments":[],"categories_sizes":[],"default_left":[0],"id":65,"left_children":[-1],"loss_changes":[0E0],"parents":[2147483647],"right_children":[-1],"split_conditions":[1.0828883E-9],"split_indices":[0],"split_type":[0],"sum_hessian":[1.15E2],"tree_param":{"num_deleted":"0","num_feature":"15","num_nodes":"1","size_leaf_vector":"1"}},{"base_weights":[3.0453646E-9],"categories":[],"categories_nodes":[],"categories_segments":[],"categories_sizes":[],"default_left":[0],"id":66,"left_children":[-1],"loss_changes":[0E0],"parents":[2147483647],"right_children":[-1],"split_conditions":[9.136094E-10],"split_indices":[0],"split_type":[0],"sum_hessian":[1.15E2],"tree_param":{"num_deleted":"0","num_feature":"15","num_nodes":"1","size_leaf_vector":"1"}},{"base_weights":[2.7405271E-9],"categories":[],"categories_nodes":[],"categories_segments":[],"categories_sizes":[],"default_left":[0],"id":67,"left_children":[-1],"loss_changes":[0E0],"parents":[2147483647],"right_children":[-1],"split_conditions":[8.221582E-10],"split_indices":[0],"split_type":[0],"sum_hessian":[1.15E2],"tree_param":{"num_deleted":"0","num_feature":"15","num_nodes":"1","size_leaf_vector":"1"}},{"base_weights":[2.4464781E-9],"categories":[],"categories_nodes":[],"categories_segments":[],"categories_sizes":[],"default_left":[0],"id":68,"left_children":[-1],"loss_changes":[0E0],"parents":[2147483647],"right_children":[-1],"split_conditions":[7.3394346E-10],"split_indices":[0],"split_type":[0],"sum_hessian":[1.15E2],"tree_param":{"num_deleted":"0","num_feature":"15","num_nodes":"1","size_leaf_vector":"1"}},{"base_weights":[2.164221E-9],"categories":[],"categories_nodes":[],"categories_segments":[],"categories_sizes":[],"default_left":[0],"id":69,"left_children":[-1],"loss_changes":[0E0],"parents":[2147483647],"right_children":[-1],"split_conditions":[6.492663E-10],"split_indices":[0],"split_type":[0],"sum_hessian":[1.15E2],"tree_param":{"num_deleted":"0","num_feature":"15","num_nodes":"1","size_leaf_vector":"1"}},{"base_weights":[1.9248672E-9],"categories":[],"categories_nodes":[],"categories_segments":[],"categories_sizes":[],"default_left":[0],"id":70,"left_children":[-1],"loss_changes":[0E0],"parents":[2147483647],"right_children":[-1],"split_conditions":[5.774602E-10],"split_indices":[0],"split_type":[0],"sum_hessian":[1.15E2],"tree_param":{"num_deleted":"0","num_feature":"15","num_nodes":"1","size_leaf_vector":"1"}},{"base_weights":[1.6970544E-9],"categories":[],"categories_nodes":[],"categories_segments":[],"categories_sizes":[],"default_left":[0],"id":71,"left_children":[-1],"loss_changes":[0E0],"parents":[2147483647],"right_children":[-1],"split_conditions":[5.0911636E-10],"split_indices":[0],"split_type":[0],"sum_hessian":[1.15E2],"tree_param":{"num_deleted":"0","num_feature":"15","num_nodes":"1","size_leaf_vector":"1"}},{"base_weights":[1.4770194E-9],"categories":[],"categories_nodes":[],"categories_segments":[],"categories_sizes":[],"default_left":[0],"id":72,"left_children":[-1],"loss_changes":[0E0],"parents":[2147483647],"right_children":[-1],"split_conditions":[4.4310583E-10],"split_indices":[0],"split_type":[0],"sum_hessian":[1.15E2],"tree_param":{"num_deleted":"0","num_feature":"15","num_nodes":"1","size_leaf_vector":"1"}},{"base_weights":[1.3889552E-9],"categories":[],"categories_nodes":[],"categories_segments":[],"categories_sizes":[],"default_left":[0],"id":73,"left_children":[-1],"loss_changes":[0E0],"parents":[2147483647],"right_children":[-1],"split_conditions":[4.1668657E-10],"split_indices":[0],"split_type":[0],"sum_hessian":[1.15E2],"tree_param":{"num_deleted":"0","num_feature":"15","num_nodes":"1","size_leaf_vector":"1"}},{"base_weights":[1.3041527E-9],"categories":[],"categories_nodes":[],"categories_segments":[],"categories_sizes":[],"default_left":[0],"id":74,"left_children":[-1],"loss_changes":[0E0],"parents":[2147483647],"right_children":[-1],"split_conditions":[3.912458E-10],"split_indices":[0],"split_type":[0],"sum_hessian":[1.15E2],"tree_param":{"num_deleted":"0","num_feature":"15","num_nodes":"1","size_leaf_vector":"1"}},{"base_weights":[1.2236153E-9],"categories":[],"categories_nodes":[],"categories_segments":[],"categories_sizes":[],"default_left":[0],"id":75,"left_children":[-1],"loss_changes":[0E0],"parents":[2147483647],"right_children":[-1],"split_conditions":[3.670846E-10],"split_indices":[0],"split_type":[0],"sum_hessian":[1.15E2],"tree_param":{"num_deleted":"0","num_feature":"15","num_nodes":"1","size_leaf_vector":"1"}},{"base_weights":[1.1460888E-9],"categories":[],"categories_nodes":[],"categories_segments":[],"categories_sizes":[],"default_left":[0],"id":76,"left_children":[-1],"loss_changes":[0E0],"parents":[2147483647],"right_children":[-1],"split_conditions":[3.4382663E-10],"split_indices":[0],"split_type":[0],"sum_hessian":[1.15E2],"tree_param":{"num_deleted":"0","num_feature":"15","num_nodes":"1","size_leaf_vector":"1"}},{"base_weights":[1.0728274E-9],"categories":[],"categories_nodes":[],"categories_segments":[],"categories_sizes":[],"default_left":[0],"id":77,"left_children":[-1],"loss_changes":[0E0],"parents":[2147483647],"right_children":[-1],"split_conditions":[3.2184821E-10],"split_indices":[0],"split_type":[0],"sum_hessian":[1.15E2],"tree_param":{"num_deleted":"0","num_feature":"15","num_nodes":"1","size_leaf_vector":"1"}},{"base_weights":[9.998169E-10],"categories":[],"categories_nodes":[],"categories_segments":[],"categories_sizes":[],"default_left":[0],"id":78,"left_children":[-1],"loss_changes":[0E0],"parents":[2147483647],"right_children":[-1],"split_conditions":[2.9994507E-10],"split_indices":[0],"split_type":[0],"sum_hessian":[1.15E2],"tree_param":{"num_deleted":"0","num_feature":"15","num_nodes":"1","size_leaf_vector":"1"}},{"base_weights":[9.300681E-10],"categories":[],"categories_nodes":[],"categories_segments":[],"categories_sizes":[],"default_left":[0],"id":79,"left_children":[-1],"loss_changes":[0E0],"parents":[2147483647],"right_children":[-1],"split_conditions":[2.7902045E-10],"split_indices":[0],"split_type":[0],"sum_hessian":[1.15E2],"tree_param":{"num_deleted":"0","num_feature":"15","num_nodes":"1","size_leaf_vector":"1"}},{"base_weights":[8.643336E-10],"categories":[],"categories_nodes":[],"categories_segments":[],"categories_sizes":[],"default_left":[0],"id":80,"left_children":[-1],"loss_changes":[0E0],"parents":[2147483647],"right_children":[-1],"split_conditions":[2.5930008E-10],"split_indices":[0],"split_type":[0],"sum_hessian":[1.15E2],"tree_param":{"num_deleted":"0","num_feature":"15","num_nodes":"1","size_leaf_vector":"1"}},{"base_weights":[8.018607E-10],"categories":[],"categories_nodes":[],"categories_segments":[],"categories_sizes":[],"default_left":[0],"id":81,"left_children":[-1],"loss_changes":[0E0],"parents":[2147483647],"right_children":[-1],"split_conditions":[2.405582E-10],"split_indices":[0],"split_type":[0],"sum_hessian":[1.15E2],"tree_param":{"num_deleted":"0","num_feature":"15","num_nodes":"1","size_leaf_vector":"1"}},{"base_weights":[7.3963874E-10],"categories":[],"categories_nodes":[],"categories_segments":[],"categories_sizes":[],"default_left":[0],"id":82,"left_children":[-1],"loss_changes":[0E0],"parents":[2147483647],"right_children":[-1],"split_conditions":[2.2189163E-10],"split_indices":[0],"split_type":[0],"sum_hessian":[1.15E2],"tree_param":{"num_deleted":"0","num_feature":"15","num_nodes":"1","size_leaf_vector":"1"}},{"base_weights":[7.135456E-10],"categories":[],"categories_nodes":[],"categories_segments":[],"categories_sizes":[],"default_left":[0],"id":83,"left_children":[-1],"loss_changes":[0E0],"parents":[2147483647],"right_children":[-1],"split_conditions":[2.140637E-10],"split_indices":[0],"split_type":[0],"sum_hessian":[1.15E2],"tree_param":{"num_deleted":"0","num_feature":"15","num_nodes":"1","size_leaf_vector":"1"}},{"base_weights":[6.8770345E-10],"categories":[],"categories_nodes":[],"categories_segments":[],"categories_sizes":[],"default_left":[0],"id":84,"left_children":[-1],"loss_changes":[0E0],"parents":[2147483647],"right_children":[-1],"split_conditions":[2.0631104E-10],"split_indices":[0],"split_type":[0],"sum_hessian":[1.15E2],"tree_param":{"num_deleted":"0","num_feature":"15","num_nodes":"1","size_leaf_vector":"1"}},{"base_weights":[6.6186123E-10],"categories":[],"categories_nodes":[],"categories_segments":[],"categories_sizes":[],"default_left":[0],"id":85,"left_children":[-1],"loss_changes":[0E0],"parents":[2147483647],"right_children":[-1],"split_conditions":[1.9855838E-10],"split_indices":[0],"split_type":[0],"sum_hessian":[1.15E2],"tree_param":{"num_deleted":"0","num_feature":"15","num_nodes":"1","size_leaf_vector":"1"}},{"base_weights":[6.390298E-10],"categories":[],"categories_nodes":[],"categories_segments":[],"categories_sizes":[],"default_left":[0],"id":86,"left_children":[-1],"loss_changes":[0E0],"parents":[2147483647],"right_children":[-1],"split_conditions":[1.9170894E-10],"split_indices":[0],"split_type":[0],"sum_hessian":[1.15E2],"tree_param":{"num_deleted":"0","num_feature":"15","num_nodes":"1","size_leaf_vector":"1"}},{"base_weights":[6.161983E-10],"categories":[],"categories_nodes":[],"categories_segments":[],"categories_sizes":[],"default_left":[0],"id":87,"left_children":[-1],"loss_changes":[0E0],"parents":[2147483647],"right_children":[-1],"split_conditions":[1.848595E-10],"split_indices":[0],"split_type":[0],"sum_hessian":[1.15E2],"tree_param":{"num_deleted":"0","num_feature":"15","num_nodes":"1","size_leaf_vector":"1"}},{"base_weights":[5.9361777E-10],"categories":[],"categories_nodes":[],"categories_segments":[],"categories_sizes":[],"default_left":[0],"id":88,"left_children":[-1],"loss_changes":[0E0],"parents":[2147483647],"right_children":[-1],"split_conditions":[1.7808534E-10],"split_indices":[0],"split_type":[0],"sum_hessian":[1.15E2],"tree_param":{"num_deleted":"0","num_feature":"15","num_nodes":"1","size_leaf_vector":"1"}},{"base_weights":[5.710372E-10],"categories":[],"categories_nodes":[],"categories_segments":[],"categories_sizes":[],"default_left":[0],"id":89,"left_children":[-1],"loss_changes":[0E0],"parents":[2147483647],"right_children":[-1],"split_conditions":[1.7131117E-10],"split_indices":[0],"split_type":[0],"sum_hessian":[1.15E2],"tree_param":{"num_deleted":"0","num_feature":"15","num_nodes":"1","size_leaf_vector":"1"}},{"base_weights":[5.52471E-10],"categories":[],"categories_nodes":[],"categories_segments":[],"categories_sizes":[],"default_left":[0],"id":90,"left_children":[-1],"loss_changes":[0E0],"parents":[2147483647],"right_children":[-1],"split_conditions":[1.6574131E-10],"split_indices":[0],"split_type":[0],"sum_hessian":[1.15E2],"tree_param":{"num_deleted":"0","num_feature":"15","num_nodes":"1","size_leaf_vector":"1"}},{"base_weights":[5.3390475E-10],"categories":[],"categories_nodes":[],"categories_segments":[],"categories_sizes":[],"default_left":[0],"id":91,"left_children":[-1],"loss_changes":[0E0],"parents":[2147483647],"right_children":[-1],"split_conditions":[1.6017143E-10],"split_indices":[0],"split_type":[0],"sum_hessian":[1.15E2],"tree_param":{"num_deleted":"0","num_feature":"15","num_nodes":"1","size_leaf_vector":"1"}},{"base_weights":[5.153385E-10],"categories":[],"categories_nodes":[],"categories_segments":[],"categories_sizes":[],"default_left":[0],"id":92,"left_children":[-1],"loss_changes":[0E0],"parents":[2147483647],"right_children":[-1],"split_conditions":[1.5460155E-10],"split_indices":[0],"split_type":[0],"sum_hessian":[1.15E2],"tree_param":{"num_deleted":"0","num_feature":"15","num_nodes":"1","size_leaf_vector":"1"}},{"base_weights":[4.970232E-10],"categories":[],"categories_nodes":[],"categories_segments":[],"categories_sizes":[],"default_left":[0],"id":93,"left_children":[-1],"loss_changes":[0E0],"parents":[2147483647],"right_children":[-1],"split_conditions":[1.4910696E-10],"split_indices":[0],"split_type":[0],"sum_hessian":[1.15E2],"tree_param":{"num_deleted":"0","num_feature":"15","num_nodes":"1","size_leaf_vector":"1"}},{"base_weights":[4.7870785E-10],"categories":[],"categories_nodes":[],"categories_segments":[],"categories_sizes":[],"default_left":[0],"id":94,"left_children":[-1],"loss_changes":[0E0],"parents":[2147483647],"right_children":[-1],"split_conditions":[1.4361236E-10],"split_indices":[0],"split_type":[0],"sum_hessian":[1.15E2],"tree_param":{"num_deleted":"0","num_feature":"15","num_nodes":"1","size_leaf_vector":"1"}},{"base_weights":[4.6340323E-10],"categories":[],"categories_nodes":[],"categories_segments":[],"categories_sizes":[],"default_left":[0],"id":95,"left_children":[-1],"loss_changes":[0E0],"parents":[2147483647],"right_children":[-1],"split_conditions":[1.3902098E-10],"split_indices":[0],"split_type":[0],"sum_hessian":[1.15E2],"tree_param":{"num_deleted":"0","num_feature":"15","num_nodes":"1","size_leaf_vector":"1"}},{"base_weights":[4.4809864E-10],"categories":[],"categories_nodes":[],"categories_segments":[],"categories_sizes":[],"default_left":[0],"id":96,"left_children":[-1],"loss_changes":[0E0],"parents":[2147483647],"right_children":[-1],"split_conditions":[1.3442959E-10],"split_indices":[0],"split_type":[0],"sum_hessian":[1.15E2],"tree_param":{"num_deleted":"0","num_feature":"15","num_nodes":"1","size_leaf_vector":"1"}},{"base_weights":[4.3279402E-10],"categories":[],"categories_nodes":[],"categories_segments":[],"categories_sizes":[],"default_left":[0],"id":97,"left_children":[-1],"loss_changes":[0E0],"parents":[2147483647],"right_children":[-1],"split_conditions":[1.2983821E-10],"split_indices":[0],"split_type":[0],"sum_hessian":[1.15E2],"tree_param":{"num_deleted":"0","num_feature":"15","num_nodes":"1","size_leaf_vector":"1"}},{"base_weights":[4.1774031E-10],"categories":[],"categories_nodes":[],"categories_segments":[],"categories_sizes":[],"default_left":[0],"id":98,"left_children":[-1],"loss_changes":[0E0],"parents":[2147483647],"right_children":[-1],"split_conditions":[1.253221E-10],"split_indices":[0],"split_type":[0],"sum_hessian":[1.15E2],"tree_param":{"num_deleted":"0","num_feature":"15","num_nodes":"1","size_leaf_vector":"1"}},{"base_weights":[4.026866E-10],"categories":[],"categories_nodes":[],"categories_segments":[],"categories_sizes":[],"default_left":[0],"id":99,"left_children":[-1],"loss_changes":[0E0],"parents":[2147483647],"right_children":[-1],"split_conditions":[1.2080599E-10],"split_indices":[0],"split_type":[0],"sum_hessian":[1.15E2],"tree_param":{"num_deleted":"0","num_feature":"15","num_nodes":"1","size_leaf_vector":"1"}}]},"name":"gbtree"},"learner_model_param":{"base_score":"9.38926E-2","boost_from_average":"1","num_class":"0","num_feature":"15","num_target":"1"},"objective":{"name":"reg:squarederror","reg_loss_param":{"scale_pos_weight":"1"}}},"version":[2,1,4]}